// Auto-generated — EMG training notebook v3 (1D CNN)
// Architecture: 1x50 -> Conv(32,k5) -> Conv(64,k3) -> Conv(64,k3) -> GAP -> FC(32) -> FC(3)
// Classes: 0=rest | 1=quick_pinch | 2=quick_fist
// Best test accuracy: 89.2%  (tested on sessions 9-10)
#pragma once
#include <stdint.h>

// ── Filter (20-120 Hz bandpass, 2nd order Butterworth -> 4th order IIR) ──
static const float FILTER_B[5] = {0.63894553f, 0.00000000f, -1.27789105f, 0.00000000f, 0.63894553f};
static const float FILTER_A[5] = {1.00000000f, 0.51967834f, -1.04376861f, -0.19245083f, 0.41280160f};

#define NUM_CLASSES    3
#define WINDOW_SIZE    50
#define SAMPLE_RATE    250

// ── Conv layers (BN folded in) ──
// Conv1: 1 in, 32 out, kernel=5, pool=2
#define CONV1_IN_CH   1
#define CONV1_OUT_CH  32
#define CONV1_KERNEL  5
#define CONV1_POOL    2
static const float CONV1_W[160] = {
    8.89782238f, 6.24154949f, 0.21494222f, 4.37058544f, -0.39352715f, -0.79869449f, -3.59475064f, 3.31640244f, 5.99545097f, -2.45892310f, 12.97403622f, 8.25800610f, 8.10746765f, 4.41613340f, 4.72785234f, -2.20020533f, 8.20796108f, 1.18893886f, -1.00210118f, 2.30143404f, -3.90598679f, -0.54614413f, -4.07112551f, 6.17744160f, -5.25670624f, -5.78629541f, -2.78854752f, -6.43980074f, 0.09735797f, -10.85147285f, 4.15521097f, -4.74747753f, 5.02486897f, 1.30039012f, -2.65583491f, 7.41658735f, 0.28345269f, 9.43085384f, 1.81691563f, -0.56896734f, 1.62329531f, 2.34441900f, 5.72650433f, 12.77441502f, 7.80603981f, -4.22743273f, 4.44682455f, 0.20092979f, 5.84131670f, -4.20621920f, -4.55100965f, -3.97958136f, -4.42075968f, 5.67473698f, 2.86072731f, 4.80813503f, 1.09256744f, -0.32606530f, 5.84679699f, -5.26004744f, 1.59474981f, -4.29008484f, 3.63082814f, -5.33234358f, 6.85915804f, -1.03389204f, 7.17093897f, -2.58054757f, -4.11506176f, -3.66386962f, 4.72164297f, 2.81335020f, 2.85061145f, -4.17727661f, -5.98855448f, -4.52514887f, -4.57484388f, 1.73823154f, 2.86124611f, 5.72880888f, -3.12196589f, -3.88923383f, 2.41383648f, -4.77442122f, 6.25954533f, -1.52620673f, 4.00612354f, -4.30863476f, -3.68798900f, 5.14702415f, 0.03995046f, -1.93701041f, 5.90480232f, 4.74646568f, -4.02177286f, -3.03473425f, 6.80156994f, -1.49746227f, -2.70102692f, -5.07859564f, -4.00383043f, 3.26915717f, -2.36613846f, -5.74590158f, 3.51554322f, -6.86421728f, -10.75402451f, -10.28187561f, -11.20205784f, -9.73739433f, 9.28364468f, 2.33302426f, -0.88206697f, -3.32280254f, -3.25619149f, -4.29045868f, 3.86823225f, -7.26624537f, -5.16023254f, -5.46298695f, -5.47745752f, -6.14240932f, -2.62336469f, -6.98685169f, -10.67412949f, -3.89608455f, -5.10524797f, -5.04240179f, 5.45215607f, 1.79553199f, 6.53382778f, 1.35682058f, -3.60238409f, 4.57201672f, -0.77501833f, -5.29795408f, -7.99309874f, -7.35561800f, 1.59905922f, 0.00948861f, 2.49158716f, -5.86356354f, 5.50249577f, -3.45528436f, -2.39392948f, 0.91328263f, 5.00234318f, 10.13586521f, 6.03340673f, -2.15781093f, 0.52597892f, -2.05214977f, -3.62260318f, -2.55499458f, 7.80587959f, -3.54715753f, 7.53710127f, 2.64253092f, 0.13090765f, -3.56760144f
};
static const float CONV1_B[32] = {
    -0.05948386f, -0.06753586f, -0.20415328f, -0.08246642f, 0.04151719f, 0.00124006f, -0.07337306f, -0.08246259f, -0.17249055f, 0.00875349f, -0.14803438f, -0.02422273f, -0.00074416f, -0.06779450f, -0.07879844f, -0.01181499f, -0.03634483f, -0.02917887f, -0.06827756f, -0.06345987f, -0.01949336f, -0.03126807f, -0.26325455f, 0.00842667f, -0.00289469f, -0.07735289f, -0.03789599f, -0.00210255f, -0.00579465f, -0.10520215f, -0.05576197f, -0.06882015f
};

// Conv2: 32 in, 64 out, kernel=3, pool=2
#define CONV2_IN_CH   32
#define CONV2_OUT_CH  64
#define CONV2_KERNEL  3
#define CONV2_POOL    2
static const float CONV2_W[6144] = {
    0.06915843f, 0.06166647f, 0.00923824f, 0.01910467f, 0.01530772f, -0.00112636f, 0.10874989f, 0.07228630f, -0.11277130f, 0.02042442f, 0.08235415f, 0.03665538f, -0.01370480f, -0.04034742f, 0.00892766f, -0.07730472f, 0.00640584f, 0.15733196f, 0.09741164f, 0.02493259f, -0.06066520f, 0.03420475f, 0.00053757f, 0.10410595f, 0.04156095f, -0.05941783f, 0.03075168f, -0.01701839f, -0.02012682f, 0.03803461f, 0.03078391f, -0.00668742f, -0.07607999f, 0.03449780f, 0.07743030f, 0.07608800f, -0.06225023f, -0.09140406f, 0.01404819f, 0.10143631f, 0.04244412f, 0.09597564f, 0.06587805f, 0.06331393f, 0.05105657f, -0.02563437f, -0.04530078f, -0.05877138f, 0.04035866f, -0.05034780f, 0.02215574f, 0.03304847f, -0.01748895f, -0.01557229f, -0.00901173f, 0.06192927f, 0.01154940f, 0.10292333f, -0.00112353f, -0.07177266f, -0.01213777f, -0.00577110f, 0.03395589f, -0.03405878f, 0.03522076f, 0.04928034f, 0.12547176f, 0.09795323f, 0.07722350f, -0.05929901f, 0.05047810f, -0.03286846f, 0.01001794f, 0.11281996f, 0.05673121f, 0.01812798f, 0.00332511f, -0.06702749f, 0.07346628f, -0.09155705f, 0.10851013f, 0.13872859f, 0.07300903f, 0.02128345f, 0.00638134f, 0.02201364f, 0.06032000f, -0.06855199f, 0.04013104f, -0.03126765f, -0.00649659f, -0.02692765f, 0.06851847f, 0.01076726f, -0.05081433f, 0.03894444f, 0.04419698f, -0.00071727f, -0.03138388f, 0.01058686f, -0.06742536f, -0.07942567f, 0.03303797f, 0.00756118f, -0.04405180f, 0.00352641f, -0.03435834f, -0.04582323f, 0.01029182f, -0.08687722f, -0.05521701f, -0.00113482f, -0.09010071f, -0.00834104f, -0.07198935f, -0.02764131f, -0.06558654f, -0.03409095f, 0.04449042f, 0.01729010f, -0.02918585f, 0.00447199f, 0.02706545f, 0.06651042f, 0.00269465f, 0.00546170f, 0.00499352f, -0.02313340f, -0.00973129f, 0.01415527f, 0.01629352f, -0.01624090f, -0.04461810f, -0.06132719f, -0.08659828f, -0.03771574f, -0.05220385f, -0.04140363f, 0.04592116f, 0.03026957f, -0.07595726f, 0.03372739f, -0.00605618f, -0.03857886f, 0.00702568f, -0.03481141f, -0.08052024f, -0.04950428f, -0.02618372f, -0.04965764f, 0.00020942f, -0.07734620f, -0.04861918f, -0.01469749f, 0.01330320f, -0.05255445f, -0.04266878f, -0.07669999f, -0.06185611f, 0.04534119f, 0.02160623f, -0.01717510f, -0.01223996f, 0.01052993f, 0.02858714f, -0.02355349f, -0.03570134f, -0.01676415f, -0.00314310f, -0.09328469f, -0.08344755f, 0.02961109f, -0.01745391f, 0.00072533f, -0.00524672f, -0.05288320f, -0.07181965f, 0.01456730f, 0.01236630f, 0.00353459f, -0.06775270f, -0.06767919f, -0.06183120f, -0.00787111f, 0.02485588f, 0.02977632f, 0.00532673f, 0.00182769f, -0.03495587f, 0.02906764f, -0.01807876f, 0.00709285f, 0.06968815f, 0.06407904f, -0.09144533f, -0.03429637f, -0.00594814f, -0.08238973f, 0.12915139f, -0.03113619f, 0.04225217f, 0.07243414f, 0.00676485f, -0.04818073f, -0.03240047f, -0.03297286f, -0.02017269f, -0.01311781f, -0.05081912f, 0.03275972f, 0.06715863f, -0.04929020f, -0.06313168f, 0.01024125f, -0.10422877f, -0.08205909f, -0.01944293f, -0.01777961f, -0.09641977f, 0.07086182f, 0.03951957f, 0.03223112f, 0.06712274f, -0.08023521f, -0.06712136f, 0.07464966f, -0.05695163f, -0.09985647f, -0.00129288f, -0.03560509f, -0.06968783f, 0.03293091f, 0.07597604f, -0.02945221f, 0.03238653f, -0.05598349f, -0.12859514f, 0.07802421f, -0.02983456f, -0.03634826f, -0.03987460f, -0.00149122f, -0.08980446f, 0.00592186f, -0.06213434f, -0.03856374f, -0.03099219f, -0.04272183f, -0.08954106f, 0.10917727f, 0.01842506f, 0.04995459f, 0.07750104f, -0.05291890f, -0.11410885f, 0.09958936f, 0.01767367f, -0.12093190f, 0.10609407f, -0.09766176f, -0.12206845f, 0.01214746f, 0.05216055f, 0.00029928f, -0.02780512f, -0.01250982f, -0.07211599f, -0.07368337f, -0.03767118f, -0.00773645f, 0.05902405f, -0.08642673f, -0.03905912f, -0.08108402f, -0.09736507f, -0.06628575f, 0.12315497f, 0.04501685f, 0.01737169f, 0.03409700f, 0.01162553f, -0.06170116f, -0.08346649f, 0.00348157f, -0.08185968f, 0.02181226f, -0.04525910f, 0.00225516f, 0.07502561f, -0.05618834f, -0.04314197f, -0.02461090f, -0.03402404f, -0.13957459f, 0.11093695f, -0.05737672f, 0.16713689f, 0.14638191f, 0.00362102f, 0.07384532f, -0.00335880f, 0.06608316f, -0.03542054f, -0.02900942f, 0.09287991f, 0.10419530f, -0.03328241f, -0.02797741f, -0.03829132f, -0.06516548f, 0.02366948f, 0.07377359f, 0.04437436f, 0.02452092f, -0.12331911f, -0.06035451f, -0.01063103f, -0.01246191f, -0.03914517f, -0.06830858f, 0.00854952f, -0.09180454f, -0.04654564f, -0.13489768f, 0.11573765f, -0.13417362f, 0.13119623f, 0.00174069f, -0.05869703f, 0.13551767f, -0.00685751f, 0.08093662f, 0.07396568f, -0.13231866f, 0.02536806f, 0.01079240f, 0.03115478f, 0.04194239f, 0.07072084f, -0.04939818f, -0.03699228f, 0.16094702f, 0.04107935f, 0.02034806f, -0.19226694f, 0.02754551f, -0.11928776f, 0.16944344f, -0.06711437f, -0.01121210f, -0.00326894f, 0.02707048f, 0.13900222f, 0.02209069f, 0.09160657f, 0.06319442f, 0.10896033f, -0.03360861f, -0.04511682f, 0.11773229f, -0.02406251f, 0.07775813f, -0.02992595f, -0.13284370f, 0.10954732f, -0.01124456f, 0.07304703f, 0.14290716f, 0.10496701f, 0.07021601f, 0.06917709f, -0.13232329f, -0.07194455f, -0.05370504f, -0.11325212f, -0.11232076f, -0.10627192f, -0.19161654f, -0.07615125f, -0.15347269f, -0.07087259f, 0.05660266f, 0.08015817f, -0.00475099f, -0.00219908f, 0.02251946f, -0.10324144f, -0.04600210f, -0.00510192f, 0.00066180f, -0.00683872f, 0.19672897f, 0.05536018f, 0.05116274f, -0.11885127f, 0.02114313f, -0.04405244f, 0.03854008f, 0.04301718f, 0.10566324f, -0.01289256f, -0.01641284f, 0.03932300f, -0.14147618f, -0.05176890f, -0.07323486f, 0.09958333f, 0.06154703f, -0.05766451f, 0.15818655f, -0.00373764f, -0.06959125f, -0.01149410f, -0.04582077f, -0.07146582f, 0.01607257f, 0.13558696f, 0.05761777f, 0.02894263f, -0.00827607f, -0.04571620f, 0.06199653f, 0.04598198f, 0.02882704f, 0.00407366f, -0.06249788f, -0.05400427f, 0.12795776f, 0.05303456f, 0.09014577f, -0.00673673f, -0.04744886f, 0.08830192f, -0.05946266f, 0.00363080f, 0.07007568f, -0.09147609f, 0.09041166f, -0.06167524f, -0.08567282f, 0.12288313f, 0.13800347f, -0.02030837f, -0.02770480f, -0.01050314f, -0.08090818f, -0.02458579f, 0.05723704f, 0.11015775f, -0.07126410f, 0.18063958f, 0.05814395f, -0.07219028f, 0.03679330f, 0.05148006f, -0.04455198f, 0.04239809f, -0.03432155f, 0.15989961f, -0.07835283f, 0.13453321f, 0.09066545f, 0.03027191f, 0.07147017f, -0.08101473f, -0.01322493f, 0.01088926f, 0.14822049f, 0.01568693f, 0.00478550f, -0.05648302f, -0.01599664f, -0.00945737f, 0.11800754f, 0.03823236f, 0.11379199f, 0.15778415f, -0.07943875f, -0.02899718f, 0.09032708f, 0.06471069f, 0.01204221f, -0.04955720f, 0.04625217f, -0.05946557f, -0.11665816f, -0.08248112f, -0.02046341f, -0.02767201f, 0.01518475f, -0.05561784f, -0.02685093f, -0.08050262f, -0.00186801f, -0.07361072f, -0.05586581f, -0.05580003f, 0.00519861f, 0.00467092f, 0.02607870f, -0.08045431f, 0.05431276f, 0.00924666f, 0.00898665f, 0.04138795f, 0.01417249f, -0.14821878f, 0.06345607f, 0.03717985f, -0.02342008f, -0.07513205f, -0.08285416f, -0.01042727f, -0.06193127f, -0.00424587f, 0.01865597f, -0.09115984f, -0.01663900f, 0.02694869f, 0.05025949f, 0.05512745f, -0.10183883f, 0.06002477f, 0.02940229f, 0.04909361f, -0.09113804f, -0.03762387f, -0.05376421f, -0.07832671f, -0.00543842f, 0.04381553f, 0.05664970f, -0.05780289f, 0.01376950f, 0.01418791f, -0.07460551f, -0.11331574f, -0.03278646f, 0.06453986f, -0.11606914f, -0.05559279f, -0.02129354f, 0.05026896f, 0.07272249f, -0.04359134f, -0.06049961f, 0.05158779f, 0.05962900f, 0.07266993f, 0.02900827f, 0.04731134f, 0.05497842f, -0.07388280f, -0.05809814f, 0.06446812f, -0.08505432f, -0.07577843f, 0.04320917f, 0.02183373f, -0.00264719f, -0.07047078f, -0.02285747f, 0.01685903f, -0.07040485f, -0.03495399f, -0.00237666f, -0.06840838f, 0.04804996f, -0.05785453f, -0.02209730f, -0.06996328f, -0.11371044f, -0.05193544f, 0.04297809f, 0.01282662f, -0.11747655f, -0.18986273f, 0.16530435f, 0.02592391f, 0.06607779f, -0.04621429f, -0.08714889f, -0.06352325f, -0.03377153f, -0.07977639f, -0.01599947f, 0.03317642f, -0.04684011f, -0.04903148f, -0.14931893f, 0.00335218f, -0.05484439f, -0.12768820f, -0.08707181f, 0.02519161f, -0.01229492f, -0.09462869f, 0.16252401f, -0.06373510f, 0.02492416f, 0.09953053f, -0.06658816f, 0.09387065f, -0.14162481f, -0.08456427f, -0.05988231f, -0.06909230f, 0.11857904f, -0.00198149f, -0.00323704f, -0.07614858f, 0.02917612f, -0.16339742f, -0.20534234f, -0.00897356f, 0.03221746f, 0.16765757f, -0.13544706f, -0.03566418f, 0.08134385f, 0.09861369f, 0.00531706f, 0.03215139f, -0.00073428f, -0.05531545f, -0.00669137f, -0.02567644f, 0.08399545f, 0.06331631f, 0.14149578f, -0.04178263f, -0.02037652f, -0.05015029f, 0.01176060f, 0.09545038f, -0.14062297f, 0.02801495f, -0.03705779f, 0.08944530f, -0.04860415f, -0.18639794f, -0.04041697f, -0.12901892f, 0.09958135f, 0.00200422f, -0.09744244f, 0.01357494f, -0.12912199f, -0.00341445f, -0.12776430f, -0.01462389f, -0.13638379f, -0.01446878f, -0.01799444f, -0.11283850f, 0.04610834f, 0.06873851f, 0.03823335f, 0.05582212f, 0.03020452f, -0.16652031f, -0.00505578f, -0.08208793f, 0.07753379f, 0.15894715f, 0.03556813f, 0.07325847f, 0.14566894f, 0.06473932f, -0.07275707f, 0.12582974f, -0.04575833f, -0.06391679f, 0.06184746f, 0.03388187f, 0.03168439f, -0.06518202f, -0.12971754f, 0.06264150f, 0.10489525f, -0.03441968f, -0.02965196f, -0.03186578f, -0.08175820f, 0.09955931f, 0.08066840f, 0.11867464f, 0.02518153f, 0.10806030f, 0.08372150f, 0.03274201f, -0.00221785f, 0.03421539f, 0.11934768f, 0.03398116f, -0.03155420f, -0.06810850f, -0.12220151f, -0.10877409f, 0.03351106f, 0.04585868f, 0.05548456f, 0.05805149f, 0.00602686f, -0.06337400f, -0.05075496f, 0.00862035f, -0.03510486f, 0.13191810f, 0.10952182f, 0.12862822f, 0.00630654f, 0.02052654f, 0.03264062f, -0.05338208f, -0.00067727f, -0.09525104f, -0.02254088f, -0.14374767f, 0.01094410f, 0.07845249f, 0.07749898f, 0.08950000f, -0.11498908f, -0.03703735f, -0.05205886f, -0.04316974f, -0.07439812f, -0.14530259f, 0.07276020f, -0.05189703f, 0.02669325f, -0.00909339f, -0.05307654f, -0.11135352f, -0.01709510f, -0.16067588f, -0.13848546f, 0.11560861f, -0.03031507f, -0.18802217f, -0.01095526f, 0.00296001f, -0.00391088f, -0.07027353f, -0.10908921f, -0.09435575f, -0.01184977f, -0.07681890f, -0.03650463f, -0.08768617f, -0.07561428f, -0.11514591f, 0.00955618f, -0.10679688f, -0.13073894f, -0.03862766f, 0.00405746f, -0.00505836f, -0.11275127f, 0.00158209f, -0.06495862f, -0.00501831f, -0.07374704f, -0.10515245f, 0.00716346f, 0.05158575f, 0.02012655f, -0.27101952f, 0.04756417f, -0.07198647f, -0.07110113f, -0.01321919f, 0.12648772f, -0.04187031f, 0.00264508f, 0.22415408f, -0.12374403f, 0.18556793f, 0.07088703f, 0.00888577f, -0.12774104f, 0.14756824f, -0.05109444f, -0.15821694f, 0.13410452f, 0.06188095f, 0.18383272f, 0.06756192f, -0.06357251f, 0.16702290f, 0.13900994f, -0.22701892f, 0.03482327f, -0.06632590f, -0.01474884f, 0.04769870f, 0.00700883f, 0.00166829f, 0.15928608f, -0.00736654f, -0.20432325f, 0.12650695f, 0.00269545f, -0.10744938f, 0.02699187f, -0.01201986f, -0.23710310f, 0.19970474f, -0.09308419f, -0.09487376f, 0.11199450f, -0.07425971f, -0.13720100f, -0.02183013f, 0.04147205f, -0.12040461f, -0.02334736f, 0.09614538f, -0.15672228f, 0.03771277f, -0.06662725f, -0.01219581f, 0.15154044f, -0.14105715f, -0.01676395f, 0.19970171f, 0.07619686f, -0.15463805f, -0.00802141f, -0.10535935f, -0.05149207f, 0.13056076f, -0.07323451f, 0.06391515f, -0.08212069f, 0.14329909f, -0.17689791f, 0.17676947f, -0.09001926f, -0.05295921f, -0.10675497f, -0.02445411f, 0.15576553f, 0.11445437f, -0.08297709f, -0.11148786f, 0.01691558f, -0.05980220f, 0.20412664f, 0.08706167f, 0.07986872f, -0.06946423f, 0.00594722f, -0.01457646f, -0.02137221f, 0.11555149f, -0.11118434f, 0.07865025f, 0.05006604f, -0.08652026f, -0.08565426f, 0.17342900f, 0.08978106f, -0.05965828f, -0.10810901f, -0.05358811f, -0.10650749f, -0.07714204f, -0.01709607f, 0.11886735f, 0.00967964f, -0.14969836f, 0.00915340f, -0.08253019f, 0.04186116f, 0.08149607f, 0.10248339f, 0.12432908f, 0.10082958f, 0.02324685f, 0.05065929f, 0.00287896f, 0.01686429f, -0.07985380f, -0.00540463f, -0.14716037f, -0.10215388f, -0.16487511f, -0.08621493f, -0.13981132f, -0.12965991f, 0.01237468f, 0.11349801f, 0.08825302f, 0.10487317f, -0.06765759f, -0.10815471f, 0.02963968f, 0.01707443f, -0.11270019f, 0.02950131f, 0.09153595f, -0.03471002f, -0.03223898f, 0.09403237f, 0.03604980f, 0.05166192f, -0.09995209f, 0.03849775f, -0.07781209f, 0.13859563f, -0.07838040f, 0.09115059f, 0.04821529f, 0.01865779f, -0.00141762f, 0.00972556f, -0.06701966f, -0.11263115f, -0.12660360f, 0.03706802f, 0.01500344f, 0.07551831f, -0.06607869f, 0.10242869f, 0.05021680f, 0.03293202f, -0.05113920f, -0.14579388f, -0.04020818f, -0.11431447f, 0.08425313f, -0.13552018f, 0.12465360f, 0.11569847f, 0.07023244f, 0.10766342f, -0.15828779f, 0.13351601f, 0.03436842f, -0.08194202f, 0.07177768f, -0.04887143f, -0.01335223f, 0.10602132f, -0.04325364f, -0.04164295f, 0.02963237f, 0.02990487f, 0.01949142f, -0.21587861f, -0.03770770f, -0.15186392f, -0.06658749f, -0.06521902f, 0.03977250f, -0.04597760f, -0.10496275f, 0.09678701f, 0.05547626f, 0.06251384f, -0.06706606f, 0.03783783f, 0.10590836f, -0.05076256f, -0.02034883f, 0.11187422f, 0.01798643f, 0.11993571f, 0.09121404f, 0.04072848f, -0.06483851f, 0.03199990f, -0.14197002f, 0.01672316f, -0.12071990f, -0.10515982f, 0.02933377f, 0.00042211f, -0.06960012f, 0.05783144f, 0.11139808f, -0.00379024f, 0.04804734f, -0.01858700f, -0.03898448f, 0.02717133f, -0.05591484f, -0.06198637f, -0.05272996f, -0.10582543f, -0.08171975f, -0.05411832f, -0.01393060f, -0.09141682f, 0.06661835f, 0.03577201f, -0.05399764f, 0.12969492f, 0.05530931f, -0.13758737f, 0.02759181f, -0.07211099f, -0.15554751f, 0.02643168f, -0.00586749f, -0.07589874f, 0.01034504f, -0.00350295f, -0.06086461f, 0.12835839f, -0.07063690f, -0.14287962f, 0.05149451f, -0.02951237f, -0.04254609f, 0.13956733f, 0.06576403f, -0.09825327f, 0.07209097f, 0.07381827f, -0.09142990f, 0.12130736f, 0.07253972f, -0.05411500f, 0.09286363f, 0.01795986f, -0.10652785f, 0.06228624f, 0.03599094f, -0.09748165f, 0.07255395f, -0.07168882f, -0.05240578f, 0.13733067f, 0.00099451f, -0.15341246f, 0.06909252f, 0.06809087f, 0.02365012f, 0.09158006f, 0.09471716f, -0.09324788f, 0.01063147f, 0.01888090f, -0.03018861f, 0.13148789f, -0.05494254f, -0.14454229f, 0.04651373f, -0.05243435f, -0.05194790f, 0.07541570f, -0.12119150f, -0.07153480f, -0.03036723f, 0.02000825f, -0.03217687f, -0.05215702f, -0.05780474f, -0.07326974f, -0.00171490f, 0.07726850f, -0.04029474f, 0.03526526f, 0.00448968f, -0.09068646f, -0.02441385f, 0.00353973f, -0.04181565f, -0.07649644f, 0.02289690f, 0.09228551f, -0.02763809f, -0.02032619f, -0.05004289f, -0.07134697f, -0.03076905f, 0.02595935f, -0.02529769f, -0.05770985f, -0.12838317f, 0.03616336f, 0.02606128f, 0.06006551f, 0.00966533f, -0.01235631f, -0.07020292f, -0.03269504f, -0.02979360f, -0.02988441f, -0.08809871f, 0.01962156f, 0.04759194f, -0.05811225f, 0.01181786f, -0.00408095f, 0.06862537f, 0.01180772f, 0.08377272f, -0.02929941f, 0.03582678f, 0.03630922f, -0.11171967f, -0.05171968f, -0.00353676f, 0.03850325f, -0.06910858f, -0.02011723f, 0.01707534f, -0.01588711f, -0.07579643f, 0.03687502f, 0.03345409f, -0.08837928f, -0.01733358f, -0.06920737f, -0.01941845f, 0.04374659f, -0.03990051f, -0.02744945f, 0.11036403f, -0.03657155f, -0.02604058f, -0.00535625f, -0.07059767f, 0.00789244f, -0.08503676f, -0.08104166f, 0.00861911f, 0.00453404f, -0.09869748f, -0.08759013f, 0.01883323f, 0.05615235f, -0.09698770f, -0.00113634f, -0.06628761f, -0.04896371f, 0.06045634f, -0.00206426f, -0.06339297f, 0.04216789f, 0.01046743f, -0.01565913f, 0.05140480f, -0.06190918f, -0.02941816f, -0.05480627f, -0.02937177f, -0.00331347f, 0.00784172f, -0.02877927f, -0.07262588f, 0.01072777f, -0.06064831f, -0.06621736f, 0.02731542f, -0.00861706f, 0.00057883f, 0.00228237f, 0.00225324f, -0.02697446f, -0.02996527f, -0.00626593f, -0.01289882f, -0.01728605f, -0.07195112f, -0.02545845f, -0.06049556f, -0.03416183f, -0.02182146f, -0.05771183f, -0.06958490f, -0.04319738f, 0.05926739f, 0.04094296f, -0.03889974f, 0.05149365f, -0.03493600f, -0.05237227f, 0.03570670f, 0.01116799f, 0.05280273f, 0.00474380f, 0.00263182f, 0.00953113f, 0.03847044f, -0.00526504f, 0.00768245f, -0.02075654f, 0.01573060f, -0.01845120f, -0.02208061f, -0.01894056f, -0.03446500f, -0.02020575f, -0.01389671f, -0.05899137f, 0.04737815f, -0.01814018f, -0.05137674f, -0.01206412f, -0.05260760f, -0.03384486f, -0.03698959f, -0.06426542f, -0.04824064f, -0.07610478f, -0.05466424f, -0.02566727f, -0.04688966f, -0.10878698f, -0.09473126f, 0.02697359f, -0.05556188f, -0.09107308f, 0.04113283f, 0.00353933f, 0.01660873f, -0.02482355f, -0.03496036f, -0.03239455f, -0.00655739f, -0.08313085f, -0.08969542f, 0.03607533f, -0.00109084f, 0.01773042f, -0.02756654f, -0.05128656f, -0.03419319f, -0.01749063f, -0.03112812f, -0.05791451f, -0.06019114f, -0.04942212f, 0.00846898f, 0.02642391f, 0.01467611f, 0.03298040f, -0.02039486f, -0.01943856f, -0.03075188f, 0.02499964f, -0.04655663f, -0.00355056f, -0.02265195f, -0.05068707f, -0.08338928f, -0.08637045f, -0.16244724f, -0.11124289f, 0.06484729f, 0.01424129f, -0.18986556f, -0.06126279f, -0.04772630f, -0.09454641f, 0.04376812f, 0.06623863f, -0.02453914f, -0.04719207f, 0.06080741f, 0.03649753f, 0.05669275f, -0.05888094f, -0.14129360f, 0.01365497f, 0.05452782f, -0.08850095f, -0.16159560f, -0.12868114f, -0.01893662f, 0.00410813f, 0.10940292f, 0.08756956f, -0.01044704f, -0.03463876f, -0.03408989f, 0.07952645f, -0.04539220f, -0.00229104f, 0.03866316f, 0.03873900f, 0.03652445f, -0.08527587f, 0.03573268f, 0.00530081f, -0.04470378f, -0.04021396f, -0.00332587f, -0.01191177f, 0.02338667f, 0.05239334f, 0.04248244f, 0.05829412f, 0.00788974f, -0.13120711f, -0.13172603f, -0.01144799f, -0.09368428f, -0.13656780f, -0.17500377f, -0.01001173f, 0.10785237f, 0.03155018f, 0.06254479f, -0.02824857f, 0.01851044f, -0.04409812f, 0.02551557f, -0.03718592f, 0.06276257f, 0.03189563f, -0.00395534f, -0.01792623f, 0.02813540f, 0.08935407f, 0.04408787f, 0.06130158f, 0.00051504f, 0.04498208f, -0.01314736f, 0.05307810f, 0.08542946f, -0.01668483f, -0.02310362f, 0.00050189f, 0.00958490f, 0.09936603f, 0.01023560f, 0.01332188f, 0.00165104f, -0.04357041f, -0.06451145f, -0.15789159f, 0.04703237f, 0.02466566f, -0.02029798f, -0.01112227f, 0.01475369f, -0.14556466f, -0.01065752f, -0.06580523f, -0.02840964f, -0.03523088f, -0.04302924f, 0.00520221f, 0.01323545f, 0.07268652f, 0.07196397f, 0.00712631f, 0.02651383f, -0.01084643f, -0.09266756f, -0.13057154f, 0.02810543f, -0.09237923f, 0.00319105f, 0.06508414f, 0.09347119f, 0.02419683f, -0.10593597f, -0.00991255f, -0.07352797f, -0.19050522f, -0.01822932f, 0.05639142f, 0.13216877f, -0.05340647f, -0.02305237f, -0.05486908f, -0.03853370f, 0.02639056f, 0.03988005f, 0.00747129f, -0.05092314f, 0.01155801f, -0.14988349f, -0.12047511f, 0.09181799f, -0.08081473f, -0.04039676f, -0.00550024f, 0.00774006f, -0.03046869f, -0.09462274f, -0.06570747f, -0.12805289f, 0.17804392f, -0.05859723f, -0.04062225f, 0.15115665f, 0.02631136f, 0.07494106f, 0.08449458f, -0.03399674f, 0.08007710f, -0.11090064f, -0.13120817f, 0.01666263f, -0.08181528f, -0.06991095f, -0.03586321f, -0.05383970f, 0.07277653f, -0.16184834f, 0.19987345f, -0.05095961f, -0.04215538f, 0.06370119f, -0.04880541f, -0.05346297f, -0.01891239f, 0.01529307f, 0.03761925f, 0.02875718f, 0.03458614f, -0.08069825f, -0.07388374f, 0.04705385f, -0.07732256f, 0.03348625f, -0.05775081f, 0.16715106f, -0.00070520f, -0.10792873f, -0.02813733f, 0.00348186f, 0.08940968f, 0.11135103f, -0.12407798f, 0.02413138f, -0.11480570f, 0.08379355f, 0.01753503f, 0.05964945f, -0.08743947f, 0.01031169f, 0.01707584f, -0.14567113f, -0.06784244f, -0.12826101f, -0.01131343f, 0.07689328f, 0.05676645f, -0.09563535f, 0.05634634f, -0.09275731f, -0.02971452f, -0.04638731f, -0.06605447f, 0.02851535f, -0.03567983f, 0.05676553f, -0.10207774f, 0.00113046f, -0.04006493f, -0.00124489f, -0.05727119f, 0.06292379f, -0.10338558f, -0.01102951f, -0.15008797f, 0.00088075f, 0.03853667f, 0.00585814f, -0.04629783f, 0.00560768f, -0.04527123f, -0.07514093f, 0.03241438f, -0.04234712f, 0.00654615f, 0.03313317f, -0.01077247f, -0.03122168f, 0.05995488f, -0.06305732f, -0.00448567f, 0.03985393f, 0.08993732f, 0.02786675f, -0.04668931f, 0.03809772f, -0.06071664f, -0.01839923f, 0.00018600f, 0.04620492f, 0.02624909f, 0.00641611f, 0.05926768f, -0.06851673f, -0.04538403f, -0.04894687f, 0.10194272f, -0.09678338f, -0.10020906f, 0.07384998f, 0.05934495f, -0.05404821f, -0.09287474f, 0.02485222f, 0.03415980f, 0.03935573f, -0.00707102f, -0.10288323f, 0.06089810f, 0.12234610f, -0.02673221f, -0.03639480f, 0.05474720f, 0.08448394f, -0.06187334f, -0.06292010f, 0.10045914f, 0.05618199f, 0.07089381f, -0.06060205f, -0.01209393f, -0.00725236f, -0.03030223f, 0.00203726f, 0.01304936f, 0.06455494f, -0.03239151f, -0.09203029f, 0.02435024f, -0.12371453f, -0.07120537f, -0.02563834f, 0.11361212f, -0.00152941f, -0.12486159f, -0.06952631f, -0.03154270f, -0.00718263f, 0.09269911f, 0.10242077f, -0.02665097f, -0.10360586f, -0.00006328f, 0.13978325f, -0.12612483f, -0.07107335f, 0.12605625f, -0.03108076f, 0.10224575f, -0.01722485f, 0.00861789f, 0.08645400f, 0.06135640f, -0.01001537f, 0.16141568f, 0.01505892f, -0.04102849f, 0.16915177f, 0.18492137f, -0.16663414f, 0.17086032f, 0.09217105f, -0.07843994f, 0.10229867f, -0.00865753f, -0.00655830f, 0.21404548f, -0.07039286f, -0.13698228f, -0.12151305f, -0.00794019f, -0.19941035f, -0.03065915f, 0.10574660f, 0.02255368f, 0.11639850f, 0.10958219f, 0.00615132f, -0.05045450f, -0.13249484f, -0.10564619f, 0.14972986f, 0.12467989f, -0.07272391f, -0.03954234f, 0.03326600f, -0.18189637f, 0.15799376f, -0.00521621f, -0.16843465f, 0.04125263f, 0.00516383f, -0.09879733f, 0.08305132f, 0.10646728f, -0.20501482f, -0.07881992f, 0.01485834f, -0.17141023f, -0.11860716f, 0.14149319f, -0.10899966f, -0.08416016f, -0.00130328f, -0.16191196f, 0.14975251f, -0.00247512f, -0.10707887f, -0.08431721f, 0.10955834f, -0.11101781f, 0.04314798f, 0.00204791f, -0.14467081f, 0.05878017f, 0.16111751f, -0.16432740f, 0.08341801f, -0.04941062f, -0.11339830f, 0.17055792f, 0.01553209f, 0.06360916f, 0.00960763f, -0.03949359f, -0.17017213f, 0.21866164f, -0.06826870f, -0.00379897f, 0.00278556f, 0.09541059f, 0.02300499f, -0.02533911f, -0.01226015f, -0.05719690f, -0.04383945f, -0.02366878f, 0.01658193f, -0.02948129f, -0.06300817f, -0.02744461f, 0.00064284f, -0.06227319f, -0.01640035f, -0.01760992f, 0.03309849f, -0.03524738f, -0.04586761f, 0.05191010f, 0.01796470f, -0.08085591f, -0.10167462f, 0.01732491f, 0.00518836f, -0.00678521f, 0.00557502f, -0.07055429f, -0.04216740f, -0.00860813f, 0.00154190f, 0.04989295f, -0.00482527f, 0.01664978f, -0.06159762f, -0.05066596f, -0.05287357f, 0.00148089f, 0.02573688f, -0.03609453f, 0.05630694f, 0.03547955f, -0.04975522f, 0.04030442f, 0.01925271f, 0.00110341f, 0.04544140f, 0.05206738f, 0.00885109f, 0.05030997f, 0.00553740f, 0.01006676f, -0.04862219f, 0.00226330f, -0.07219045f, -0.03926082f, 0.01377634f, -0.03732263f, -0.08440969f, -0.03273381f, 0.01566227f, 0.02955147f, -0.00728750f, -0.04564237f, -0.08316504f, -0.02997202f, 0.00269320f, -0.03725054f, 0.05810020f, 0.03057883f, -0.07198437f, 0.00172366f, -0.02451087f, -0.02302509f, 0.00040641f, -0.04471299f, 0.02353257f, -0.04944685f, -0.01596644f, -0.06571365f, -0.04998763f, -0.01595601f, 0.00978049f, -0.01457365f, -0.08117237f, -0.01513640f, -0.02129384f, -0.05863608f, -0.04801203f, -0.04432471f, -0.00606348f, -0.08247430f, -0.05465283f, -0.01562792f, -0.00182931f, -0.01142901f, 0.01895738f, -0.04976972f, -0.01149463f, -0.04757882f, -0.07947268f, 0.02599735f, -0.04599174f, -0.04619804f, 0.03698727f, 0.00662500f, 0.01226529f, 0.01588561f, -0.04705623f, -0.06052845f, 0.01766948f, -0.04822470f, -0.07744845f, 0.04213923f, -0.00521936f, -0.06937135f, -0.00814509f, -0.02853642f, -0.02550413f, -0.05841374f, 0.04587272f, -0.01829082f, 0.03772635f, 0.01336436f, -0.07900703f, 0.01133934f, -0.02512679f, -0.02755618f, -0.02324589f, -0.01057979f, -0.01127322f, 0.02259172f, -0.05797535f, -0.05163312f, -0.02917982f, -0.00452391f, -0.02609892f, -0.00728504f, 0.02413257f, -0.02372837f, -0.01059069f, -0.00529623f, -0.01900068f, 0.02815234f, -0.03246000f, 0.01358501f, 0.03713350f, -0.01109126f, -0.04390866f, -0.05931701f, -0.02482934f, -0.07815571f, 0.01202859f, -0.05183160f, -0.05677493f, -0.01305153f, 0.02782181f, 0.01473115f, -0.00198336f, -0.03091912f, -0.05413102f, 0.05361827f, 0.00761719f, -0.08415937f, -0.01618505f, -0.00643281f, -0.00566360f, -0.00352774f, 0.01979455f, -0.01322281f, 0.08292982f, -0.08970156f, -0.12701325f, 0.00207258f, -0.04547707f, 0.00976860f, -0.04023095f, -0.01907988f, -0.07633372f, -0.01849312f, -0.01531866f, -0.02236846f, -0.02102479f, -0.07788283f, -0.05126381f, 0.02082744f, -0.01125279f, -0.01227596f, -0.01774050f, -0.04841737f, -0.07291085f, 0.00061914f, -0.05033331f, -0.04887849f, 0.04011957f, -0.14673425f, -0.01758797f, -0.02901121f, 0.02676401f, -0.00470979f, 0.20164429f, -0.16072305f, 0.08273242f, -0.06840979f, -0.04844766f, -0.03402918f, 0.02303817f, 0.03670652f, 0.07413556f, 0.09965175f, -0.03812737f, -0.01029930f, -0.04738669f, -0.10660701f, 0.02392912f, -0.05456278f, 0.09478127f, 0.05358509f, -0.03899871f, -0.05231441f, -0.00436873f, -0.02106055f, 0.06954294f, 0.01451116f, 0.09109443f, 0.19036031f, 0.05836316f, -0.01174334f, -0.08776987f, 0.13021268f, 0.03300383f, -0.05634493f, -0.05398410f, -0.07574352f, 0.13948610f, 0.02737956f, -0.02188076f, -0.00503397f, -0.00713091f, 0.04944522f, 0.02084218f, -0.00523317f, 0.02111110f, 0.02179457f, 0.04588119f, -0.05653082f, 0.05615044f, 0.02468607f, -0.15137105f, 0.07275547f, -0.02230779f, 0.01829104f, 0.04168363f, 0.06213517f, -0.04567194f, 0.00786101f, 0.04962764f, 0.15862668f, -0.08562537f, 0.11515907f, 0.05399589f, 0.04474957f, 0.05461264f, 0.07807419f, 0.01412224f, -0.11104997f, 0.06210049f, 0.00070056f, 0.02716980f, 0.00936725f, 0.06187041f, 0.14871104f, -0.15388507f, -0.17894144f, 0.06612620f, 0.05416604f, 0.02963077f, -0.00267085f, 0.06809717f, 0.03839006f, -0.03696795f, -0.14928879f, 0.11867181f, 0.04744773f, 0.06660925f, 0.15136313f, 0.07607359f, -0.05852304f, 0.05437140f, 0.04870459f, 0.03949681f, -0.02396655f, 0.12995838f, -0.00419323f, 0.02098523f, 0.04807350f, 0.13167633f, 0.08931581f, 0.03928903f, 0.07392193f, 0.04689527f, 0.10288361f, -0.01100731f, -0.00443197f, 0.07155477f, -0.07405392f, 0.01855104f, 0.14572816f, 0.04379292f, 0.03302593f, -0.10735213f, 0.17218395f, 0.00948956f, 0.02761306f, 0.05713219f, -0.10871550f, 0.00575582f, -0.00313993f, 0.08814859f, -0.09431530f, 0.10225958f, 0.09696093f, 0.02594256f, 0.09820376f, -0.03430803f, -0.01808642f, 0.07595709f, -0.02691987f, 0.04014930f, -0.01865352f, -0.02755288f, -0.05596236f, 0.10579453f, 0.09586603f, 0.05369842f, 0.15112378f, -0.07643858f, -0.04822639f, 0.03311183f, -0.10018583f, 0.04054642f, 0.09973176f, 0.04913184f, -0.01620366f, -0.08938048f, 0.00277088f, 0.08066019f, 0.14930639f, 0.04832607f, -0.04852123f, -0.08762889f, -0.05027166f, 0.04136607f, -0.00642402f, 0.02599563f, 0.02609993f, 0.04639892f, 0.12443405f, 0.00940360f, 0.03669201f, -0.03497640f, -0.15062141f, -0.02869592f, 0.00822163f, -0.04944516f, 0.06207161f, -0.06531417f, -0.08727406f, -0.04611034f, -0.12446687f, 0.11449713f, -0.01451903f, 0.06630743f, -0.07812368f, 0.03425908f, 0.03250181f, -0.05130129f, 0.07206900f, 0.07146883f, -0.05547028f, -0.01768245f, -0.03223823f, 0.02037867f, 0.08122229f, 0.01439806f, 0.02617273f, 0.01241509f, -0.00294447f, -0.04900500f, 0.01633725f, -0.04493471f, -0.01603495f, -0.00968657f, 0.01511419f, -0.05688537f, -0.02313339f, -0.02735992f, -0.01995987f, 0.02535000f, -0.04475675f, -0.02099731f, 0.02041563f, -0.06818508f, -0.02520720f, -0.03941607f, -0.00295304f, -0.03552727f, -0.05620942f, 0.00485854f, -0.04642493f, 0.00925079f, -0.01914384f, -0.04154029f, -0.01617664f, 0.00974536f, -0.00286163f, -0.04783052f, -0.04114586f, 0.00169778f, 0.00759636f, -0.03424224f, -0.07318409f, -0.00490354f, -0.05502515f, -0.04358032f, -0.00188675f, 0.01607212f, -0.01407500f, -0.02231247f, -0.01050205f, -0.03278955f, -0.01471624f, 0.00154212f, -0.01634718f, -0.01447841f, -0.05036638f, -0.07408719f, -0.05248078f, -0.04160698f, -0.04705598f, 0.04209323f, -0.03325119f, -0.01594560f, -0.01520501f, -0.02461788f, -0.03639758f, 0.01513436f, -0.02353587f, -0.03400071f, 0.04804775f, 0.02229357f, -0.02386253f, 0.02343447f, -0.03527200f, -0.01774000f, -0.02958680f, 0.02746342f, -0.04703226f, 0.00851754f, -0.06296860f, -0.07650834f, -0.01341242f, -0.02663487f, -0.02512458f, 0.01440223f, -0.02858563f, -0.04558888f, -0.00360658f, 0.00968089f, 0.00108445f, -0.05420558f, -0.04969720f, -0.05309329f, 0.02055106f, 0.02014500f, -0.02463281f, -0.04814792f, -0.05747100f, -0.07080616f, 0.01658403f, -0.04777653f, -0.03732041f, 0.06282642f, -0.09150540f, -0.12990718f, -0.07862613f, -0.09603892f, 0.00486663f, 0.10639261f, -0.01103942f, -0.03817549f, 0.07652275f, -0.04441096f, -0.06701905f, -0.05909847f, -0.13517654f, -0.05533909f, -0.00526702f, -0.01964222f, -0.03408537f, 0.09164847f, 0.04284183f, -0.00744822f, 0.02600351f, 0.00281199f, -0.01543164f, -0.11434516f, -0.03869526f, -0.11582378f, 0.01896576f, -0.10957094f, -0.00216835f, 0.03425996f, 0.00162198f, 0.00891112f, 0.06544790f, -0.02709235f, -0.07527305f, 0.10228325f, 0.03878164f, -0.07330137f, 0.00159832f, 0.05821367f, 0.03728202f, 0.03194739f, 0.02608267f, -0.01535356f, -0.01479071f, -0.10722557f, -0.08374792f, 0.03681078f, 0.02138795f, -0.04886312f, 0.01871029f, 0.01367116f, 0.00862248f, -0.03911802f, -0.04848779f, -0.01940356f, -0.04910360f, 0.02108148f, -0.02333443f, 0.06904325f, 0.04976507f, -0.00441465f, 0.14576143f, -0.02331360f, 0.04125201f, 0.13611768f, -0.01167701f, -0.00922803f, -0.00329757f, 0.03067560f, 0.03114226f, -0.03093588f, -0.00219492f, -0.04554663f, -0.07749341f, -0.05972558f, -0.03527069f, -0.06909879f, -0.07451922f, -0.06867159f, -0.00958585f, 0.01619301f, -0.04144998f, 0.04821670f, -0.04433840f, -0.06534296f, -0.05788019f, -0.07010194f, -0.09386718f, -0.11412228f, -0.09809697f, 0.01471114f, 0.09143361f, -0.06072919f, -0.07649392f, -0.05624199f, -0.08792716f, -0.10084270f, 0.05665974f, 0.00453709f, -0.06760919f, 0.08556249f, -0.04932717f, -0.11729369f, 0.01207132f, -0.09465297f, -0.02566928f, 0.01206994f, -0.07473856f, -0.11426927f, -0.01483950f, -0.07341491f, 0.02316385f, -0.06944825f, -0.04213494f, -0.12467755f, -0.09209055f, -0.04171683f, 0.00841113f, 0.20365578f, 0.09426912f, -0.05150185f, -0.03370074f, 0.01850324f, -0.08442573f, 0.03892606f, -0.10558446f, -0.07512794f, 0.01889656f, -0.07714676f, 0.01079187f, -0.02414206f, 0.00544470f, 0.01470943f, -0.06308620f, 0.01419415f, 0.04927104f, -0.00128586f, -0.05921578f, 0.04138825f, 0.03032559f, 0.01877947f, -0.00516501f, 0.01124063f, -0.02887188f, -0.11617806f, 0.07808083f, 0.00855545f, 0.02647371f, -0.07750433f, -0.06289558f, 0.06485379f, 0.05119259f, 0.04430485f, -0.06432257f, 0.09182715f, -0.05482256f, 0.04658109f, 0.09963064f, -0.03390043f, -0.07526233f, 0.09635940f, -0.00308116f, 0.03591364f, -0.08205171f, -0.05481475f, -0.05257970f, -0.05166408f, -0.03113967f, -0.05391249f, -0.01642190f, 0.05859386f, 0.04285774f, 0.01253317f, -0.15262483f, -0.08790282f, -0.00434519f, 0.01658580f, -0.01541582f, -0.08960289f, -0.17940615f, -0.07915743f, -0.01820395f, 0.08746276f, 0.02482371f, -0.01458732f, 0.10868640f, 0.01289953f, -0.02860301f, -0.03364003f, -0.05880386f, 0.06954003f, -0.00447530f, 0.09141973f, -0.01705354f, 0.09920073f, -0.07131196f, -0.08835202f, -0.07589439f, -0.17300235f, -0.10304880f, -0.14727417f, -0.01894743f, -0.08436099f, -0.05431740f, -0.05701898f, 0.02694966f, -0.02085739f, 0.09195374f, 0.05285918f, -0.08736674f, -0.11766967f, 0.02273576f, 0.06357160f, -0.09658359f, 0.06091763f, -0.17159767f, -0.02445180f, 0.03066633f, -0.00109843f, 0.10205288f, -0.00162370f, -0.05687920f, 0.12192292f, 0.07681018f, -0.05791875f, -0.05666567f, -0.07051075f, -0.16307355f, 0.11690082f, 0.01341322f, 0.00820210f, 0.04289243f, 0.03746886f, -0.07618324f, 0.13230868f, 0.06690796f, -0.06797864f, 0.10155705f, 0.00644050f, -0.10217864f, -0.04238661f, -0.00316700f, -0.16165669f, 0.12455899f, 0.04475557f, -0.03845571f, 0.07456173f, -0.05105236f, 0.01161475f, -0.08545042f, 0.01571105f, 0.01939223f, 0.06843165f, -0.01901251f, -0.02497835f, 0.12933612f, 0.13015112f, -0.01752958f, -0.06542091f, 0.00252433f, -0.03554985f, 0.05623161f, -0.02321158f, 0.02560200f, 0.05216384f, 0.07720438f, 0.02207574f, 0.14507896f, 0.11219808f, -0.13673729f, -0.00390269f, -0.10855949f, -0.07636060f, 0.04093364f, -0.02482927f, -0.05355907f, 0.05672025f, -0.11336687f, -0.08065603f, -0.05557039f, 0.00657218f, -0.08469544f, 0.22470787f, -0.07142371f, -0.05275862f, -0.03427578f, 0.02264237f, 0.01002936f, -0.02244241f, 0.01270009f, -0.00013256f, -0.02051377f, 0.03436283f, 0.00760941f, -0.04566127f, -0.02668577f, -0.03242972f, -0.02605733f, -0.02463994f, -0.00620233f, 0.00310047f, -0.00619204f, -0.02386287f, -0.01841177f, 0.01485926f, -0.04815765f, -0.01398810f, -0.07831828f, -0.02785442f, -0.01250884f, 0.05561908f, 0.01463515f, -0.03850622f, -0.02918454f, -0.03846474f, -0.02933906f, -0.01734814f, -0.01267398f, -0.02147836f, 0.01121813f, -0.02898246f, -0.01555825f, 0.01856170f, -0.02705112f, -0.00247030f, -0.02084608f, 0.00399520f, 0.03025453f, -0.01670984f, -0.00665482f, 0.00798525f, 0.04908354f, 0.01440331f, -0.01591721f, -0.01052156f, -0.01509255f, -0.03816468f, 0.00944702f, -0.06485560f, -0.04851081f, -0.02592379f, -0.04531763f, -0.00845484f, -0.04210023f, -0.04238562f, -0.00867172f, -0.01848371f, -0.09659429f, -0.09600101f, -0.03449788f, -0.03167766f, -0.07957210f, 0.02509557f, -0.01557753f, -0.01739845f, -0.04246015f, -0.05643783f, -0.04759550f, 0.00215942f, -0.10781953f, -0.10256211f, 0.05481470f, -0.02986085f, -0.01318654f, -0.01817812f, -0.02717939f, -0.06983814f, -0.01434905f, -0.04296574f, -0.02301394f, -0.04261126f, -0.07707395f, -0.00219009f, -0.04253258f, 0.02463309f, -0.01315377f, 0.01048759f, -0.02908806f, -0.05505328f, 0.04520028f, -0.04004897f, -0.03051868f, -0.09818478f, 0.01159088f, 0.08208305f, 0.02992235f, 0.07506569f, -0.04334290f, 0.13285895f, 0.03021621f, 0.06868202f, -0.07780840f, 0.01444085f, -0.05214246f, 0.05289898f, -0.00112225f, -0.01639329f, 0.01778447f, -0.03578821f, 0.04509028f, 0.04060467f, -0.01946063f, 0.03480979f, 0.00743936f, 0.02102249f, -0.03239862f, 0.03007002f, 0.13698150f, 0.09824453f, -0.01988691f, 0.06211096f, 0.09887645f, 0.06645265f, 0.09280767f, -0.01184427f, 0.03591313f, 0.05320050f, 0.02005258f, -0.03360871f, -0.07351172f, -0.02063832f, -0.10424400f, 0.07796695f, 0.02687358f, 0.03125886f, 0.02813072f, -0.00836762f, 0.04018363f, 0.05851766f, -0.09591591f, 0.05654747f, 0.03182678f, -0.01385690f, 0.01426238f, 0.05951096f, -0.03296549f, -0.03001591f, 0.10219698f, 0.03817462f, 0.00889815f, -0.04634787f, 0.09968793f, -0.05308126f, 0.06237034f, 0.06629193f, 0.08692822f, 0.04540281f, 0.06747841f, 0.14191866f, 0.01701003f, 0.11881194f, 0.01595747f, -0.01417307f, -0.02113633f, 0.05591657f, 0.06830706f, -0.03166283f, 0.10087597f, -0.02917365f, -0.02156197f, -0.09295338f, 0.00167640f, 0.01954898f, 0.05145242f, -0.02533844f, 0.01974756f, -0.03613012f, -0.02699217f, 0.01148969f, -0.01643599f, 0.04090605f, 0.01793324f, -0.03602427f, -0.04445259f, 0.01173187f, -0.07760904f, 0.05718547f, -0.01051349f, -0.04032484f, -0.00017034f, -0.03469203f, 0.04922191f, -0.08279182f, 0.04322941f, -0.11231766f, -0.07122600f, -0.05532829f, -0.14304733f, 0.01021191f, 0.03565484f, 0.08137190f, 0.05407877f, 0.16806096f, -0.02840844f, 0.05724273f, 0.15111639f, 0.05319352f, -0.08916987f, -0.00143069f, -0.14008997f, -0.04005140f, -0.00514339f, 0.02294862f, 0.01467416f, 0.03586219f, -0.12574571f, -0.08907586f, 0.06984600f, -0.13895525f, -0.06963575f, 0.09235167f, -0.07679357f, -0.06874185f, 0.17998980f, -0.01403542f, -0.05658187f, 0.05783122f, -0.00220035f, -0.13711840f, 0.01906626f, -0.02655683f, -0.04675316f, 0.15170765f, -0.16428564f, 0.03433236f, -0.02184645f, -0.14436793f, 0.05394361f, 0.00976455f, -0.01371572f, 0.02422133f, -0.03319127f, -0.12499326f, 0.03518651f, 0.15904963f, -0.06490576f, 0.03051912f, 0.05164284f, -0.00899918f, -0.10421935f, 0.13543674f, -0.02733279f, -0.00955550f, 0.15323995f, -0.16640802f, -0.04496761f, -0.04195867f, -0.02932217f, -0.02840994f, 0.07228079f, -0.04505993f, -0.06223413f, 0.02127270f, -0.06611847f, -0.04625343f, -0.05114802f, 0.05538945f, -0.01140417f, -0.00326803f, -0.04876506f, -0.01216165f, -0.04903436f, -0.01423141f, -0.08945610f, 0.04449865f, 0.06306958f, 0.04297169f, 0.11992927f, -0.05291088f, 0.05352715f, 0.12103526f, -0.01775665f, -0.06076477f, 0.01994901f, -0.03467866f, -0.06395876f, -0.11826152f, -0.03909954f, -0.10790297f, -0.02813679f, 0.02825408f, -0.02286295f, -0.13308023f, -0.00270592f, -0.02293129f, -0.06655467f, 0.01991880f, -0.08097327f, -0.05409887f, 0.08339085f, 0.05888682f, 0.01522364f, 0.06165741f, 0.00233835f, -0.08066507f, 0.01006390f, -0.01116727f, -0.04070657f, -0.08343347f, -0.09528982f, -0.17615220f, 0.05715773f, 0.04173702f, 0.07822895f, -0.04899242f, 0.01642516f, -0.01549522f, -0.02894144f, -0.04462026f, 0.00821191f, 0.02027380f, 0.05054359f, 0.05619697f, 0.00554493f, 0.06572653f, 0.04969436f, -0.00928670f, 0.02685948f, -0.01636381f, 0.01892471f, -0.09183210f, -0.02300053f, 0.10898998f, 0.03986123f, -0.02994533f, -0.06229614f, -0.02135269f, -0.01130718f, -0.03561236f, -0.07884807f, -0.05889761f, -0.00172274f, -0.01289253f, -0.03118519f, -0.06691761f, 0.03590251f, -0.10142819f, 0.12095189f, 0.03702741f, -0.06275657f, -0.03484812f, 0.04068908f, 0.06802042f, 0.08421821f, 0.11272547f, -0.00708227f, 0.09023614f, -0.03983484f, -0.10920332f, 0.02660414f, -0.07160790f, -0.07565036f, -0.01088968f, -0.00546792f, -0.05544602f, -0.07071640f, 0.02949675f, 0.02137307f, 0.01645790f, -0.00919443f, -0.02100418f, -0.16830970f, -0.11978379f, -0.14491323f, 0.01734978f, -0.08210672f, -0.06001209f, -0.04911884f, -0.07964341f, -0.04186305f, 0.04553960f, -0.01457607f, 0.14476046f, 0.02572548f, 0.08563849f, 0.01104038f, 0.10656676f, 0.09615641f, -0.02806364f, 0.12084188f, 0.01139766f, 0.02082593f, -0.05203827f, -0.03942759f, -0.05370057f, -0.01728942f, 0.00792523f, 0.02969952f, 0.06269208f, -0.03797903f, -0.08485317f, 0.13145955f, -0.04977540f, 0.03295400f, 0.10313134f, 0.09950659f, -0.01331312f, -0.03830160f, 0.03515887f, -0.05249399f, 0.03264529f, 0.10994598f, -0.07537828f, -0.02871555f, -0.07150295f, 0.07067548f, 0.00780443f, 0.02502952f, 0.06024519f, -0.03084880f, 0.01531892f, 0.07331041f, 0.08513494f, 0.07721367f, -0.07540161f, 0.00140846f, 0.09767596f, -0.07596023f, 0.04047775f, -0.05006559f, 0.04663635f, 0.09479163f, -0.06874610f, 0.00600157f, 0.07954012f, 0.07652849f, 0.02510985f, 0.01688724f, 0.05448992f, -0.07390647f, 0.03573530f, -0.00913002f, 0.03191180f, -0.00376362f, -0.05026995f, 0.01617770f, 0.03571856f, 0.08411270f, -0.04628357f, 0.07205261f, 0.04463111f, -0.05805619f, -0.03140029f, -0.11254808f, 0.06090168f, 0.04013377f, 0.11813693f, 0.01707027f, 0.03374383f, 0.00181331f, 0.08288646f, -0.01090532f, -0.07538465f, 0.00569799f, 0.01689991f, 0.07316037f, -0.12488699f, 0.05100323f, 0.00293512f, -0.02358210f, 0.14988108f, -0.10920155f, 0.12808816f, 0.03398611f, 0.02137844f, 0.00597938f, -0.01857942f, 0.02557192f, -0.11838662f, -0.09339421f, -0.02196593f, 0.04569808f, 0.04321754f, -0.00906215f, -0.04789605f, 0.06070382f, -0.10591432f, -0.05119180f, -0.11714271f, 0.01729371f, 0.01302324f, 0.05470231f, 0.06387834f, -0.01324621f, 0.01128473f, -0.01948224f, -0.04364955f, 0.04947526f, 0.10565340f, 0.00298561f, -0.15700833f, 0.00827390f, -0.04273934f, 0.05268787f, 0.01033643f, 0.01123167f, -0.15024306f, -0.03638621f, 0.08015840f, 0.02266332f, 0.02760852f, 0.05019779f, -0.03327990f, -0.05184999f, -0.06040539f, 0.05782415f, -0.05106632f, 0.05297060f, -0.06243699f, 0.01082044f, -0.11245817f, 0.07246352f, -0.00889957f, -0.07197975f, -0.00700149f, 0.04483572f, -0.00422723f, -0.01234514f, 0.04644737f, 0.03147216f, -0.01105993f, -0.05912177f, 0.06265279f, 0.13463092f, -0.05045300f, 0.04205956f, 0.09862917f, -0.04108226f, -0.00041281f, -0.12817650f, 0.10752940f, 0.03106740f, 0.08580498f, 0.04163277f, -0.12538667f, -0.02934688f, -0.08277622f, -0.03894310f, -0.01280603f, 0.05427400f, 0.11143328f, -0.13785748f, 0.01290266f, -0.07277834f, -0.00936360f, 0.06251126f, -0.14649092f, 0.08544492f, 0.01211407f, 0.11939047f, 0.00653728f, 0.07923766f, 0.10549582f, -0.05716486f, -0.12619388f, 0.07322572f, -0.10699801f, 0.07641250f, -0.00015857f, 0.09162596f, -0.13407592f, -0.07125647f, 0.03318958f, -0.04176024f, 0.02150454f, 0.03033490f, 0.01298638f, -0.09683617f, 0.03265173f, -0.03288329f, -0.01958708f, -0.05965193f, -0.01774272f, -0.03937304f, -0.05161169f, -0.06280980f, 0.03572665f, -0.03203174f, 0.01724066f, 0.04132576f, 0.01415059f, -0.07993851f, -0.03115458f, -0.02619099f, -0.07148102f, 0.03800783f, -0.06804479f, -0.03060834f, -0.12046051f, 0.07990302f, 0.02741699f, 0.02718065f, 0.04973801f, -0.01031565f, -0.09179106f, 0.00864102f, 0.04582558f, 0.04320152f, -0.04270888f, 0.07007534f, 0.06194545f, 0.03333294f, -0.00120314f, -0.02195807f, 0.03700083f, 0.03412456f, -0.05809798f, 0.01768043f, 0.01704995f, 0.01329510f, 0.03000520f, 0.05956824f, -0.04978452f, -0.03417547f, -0.08973971f, -0.05517637f, 0.00732819f, -0.04735625f, -0.08436002f, -0.08156423f, -0.09536345f, 0.05013318f, -0.07088500f, -0.04613277f, -0.10001171f, -0.01468736f, -0.06739041f, -0.02530897f, 0.02147544f, 0.04137963f, 0.02823868f, 0.02203208f, -0.10508230f, -0.05580964f, -0.05172499f, -0.14777461f, -0.07020372f, 0.01963323f, 0.03888903f, -0.00303363f, -0.07262482f, -0.03487569f, 0.01842534f, -0.01364144f, -0.00035317f, -0.10023191f, -0.01874319f, -0.05692880f, -0.02915833f, 0.02759540f, 0.02562584f, -0.05433524f, -0.02734392f, -0.03807056f, -0.02737221f, -0.03248145f, 0.01570863f, -0.02933581f, -0.02587820f, -0.02861061f, -0.02937913f, 0.00794040f, -0.03956613f, 0.01252402f, -0.00022616f, 0.01261832f, -0.02569091f, -0.03716451f, -0.08232296f, -0.05341676f, -0.03420858f, -0.01494666f, -0.04907880f, 0.04036365f, -0.06297085f, -0.03196272f, -0.05524503f, -0.03196890f, -0.03396136f, -0.01447247f, 0.02076248f, 0.02738565f, 0.06141892f, 0.01633704f, -0.02755498f, 0.03840289f, -0.01782090f, 0.03715561f, 0.02085072f, -0.00587254f, 0.00613037f, 0.03743509f, -0.03001240f, -0.04637069f, -0.04631874f, -0.03721957f, -0.04008688f, -0.05874494f, -0.02765734f, -0.01403059f, -0.01500507f, 0.02006412f, -0.02311128f, 0.07323347f, 0.01141379f, -0.02876323f, 0.04710909f, -0.03905069f, -0.12318023f, -0.06868037f, -0.03505433f, 0.00490506f, -0.00473245f, -0.02208891f, 0.00369954f, -0.02600096f, -0.08044894f, -0.01898398f, -0.07090061f, -0.10032705f, -0.08847830f, -0.02437788f, 0.00260052f, -0.12941310f, 0.06535740f, -0.02819913f, -0.00381196f, -0.07684665f, -0.02802586f, -0.00117442f, 0.03092363f, -0.08688022f, -0.07781913f, 0.05175959f, -0.02375492f, -0.00674596f, -0.01969704f, -0.03224721f, -0.04122145f, 0.02010116f, -0.02601331f, -0.06428250f, -0.10972906f, -0.07516309f, -0.00617366f, 0.04146158f, 0.03349556f, 0.01099335f, 0.00324319f, -0.00721653f, -0.03043022f, 0.03244852f, 0.00211955f, -0.00887480f, 0.03278552f, -0.13442823f, 0.13502182f, 0.06587476f, -0.16485494f, 0.13025123f, 0.00937535f, -0.06851158f, 0.17729929f, 0.05451604f, 0.08370826f, -0.05452943f, -0.06867217f, -0.15973747f, 0.16189583f, -0.00788062f, -0.16600639f, 0.19304541f, 0.09567264f, -0.08761113f, 0.10712907f, -0.05319299f, 0.02075523f, 0.17663682f, -0.09653399f, -0.05819085f, 0.02071271f, 0.01431859f, -0.15173797f, -0.00896539f, -0.02596488f, -0.07163060f, 0.06560840f, 0.03899175f, -0.01910173f, 0.10564395f, -0.03079937f, -0.01005953f, 0.10097920f, 0.08045256f, -0.04494527f, -0.12924413f, 0.06939416f, -0.10756676f, 0.11074512f, 0.03391440f, 0.05181406f, -0.03673414f, -0.03862581f, -0.06435197f, -0.05360415f, 0.17140128f, -0.13532263f, -0.14577897f, -0.05207481f, -0.04862230f, 0.07151946f, -0.08613779f, -0.00729942f, -0.03424951f, 0.08985985f, 0.15053329f, 0.05339317f, -0.07555257f, 0.12523346f, -0.07378139f, 0.02790954f, -0.12004142f, 0.13244329f, -0.11447992f, 0.02072426f, -0.10971633f, 0.06472691f, 0.02587816f, 0.13520421f, -0.08279958f, 0.02543889f, -0.04327115f, -0.06632064f, 0.02228441f, 0.03057648f, -0.12681805f, -0.14436004f, -0.02787923f, 0.00348858f, 0.09563637f, 0.10172608f, -0.00108116f, -0.11959273f, -0.01821601f, 0.12925899f, -0.08101206f, 0.02047057f, -0.16876902f, -0.05703884f, 0.02077911f, -0.01672423f, 0.00408131f, -0.05417178f, 0.00580783f, -0.06441360f, -0.05868804f, 0.03503175f, 0.06171353f, 0.00261485f, -0.05037707f, -0.06505194f, -0.04671393f, 0.02546583f, -0.01462302f, 0.00631216f, 0.06505603f, -0.08297328f, -0.06236001f, -0.03489728f, 0.01570998f, -0.05689957f, -0.05219837f, -0.00465787f, -0.02876681f, 0.04423850f, -0.01539372f, -0.02451144f, -0.01259455f, 0.01807610f, 0.03230219f, 0.03244102f, 0.00607374f, 0.01577896f, -0.01780039f, -0.05904821f, -0.07514473f, 0.05686152f, 0.01824491f, -0.01876752f, -0.02748753f, -0.02544323f, -0.01541796f, -0.01400506f, 0.01765312f, -0.06035769f, 0.01593621f, -0.03918972f, 0.00480413f, 0.00540979f, -0.00616534f, -0.03051419f, -0.08594818f, -0.00143467f, -0.03423954f, -0.03678709f, -0.02255441f, -0.02780517f, 0.05470994f, 0.00871710f, -0.03241687f, -0.05560701f, -0.11444077f, -0.12511368f, 0.01343554f, -0.05429416f, -0.08761564f, -0.04267988f, -0.05069597f, -0.01159893f, -0.03301701f, 0.06307995f, -0.02339645f, 0.02670424f, -0.11602522f, -0.11878125f, -0.02621574f, 0.00586533f, 0.02744758f, -0.00114134f, -0.03416588f, -0.06335617f, -0.05981163f, 0.01706993f, -0.08268128f, -0.03408105f, 0.02492574f, -0.00849636f, 0.01637458f, -0.02593284f, -0.03721549f, -0.00374796f, -0.05291393f, -0.08937920f, 0.04908130f, -0.02452672f, -0.00017268f, -0.09504635f, -0.06429440f, -0.16013849f, -0.03337395f, -0.11257881f, 0.03168362f, -0.05674452f, -0.08862557f, 0.04397174f, 0.05485697f, 0.05441948f, 0.09891299f, -0.08127446f, -0.06306842f, -0.01502759f, 0.04935355f, 0.08455997f, 0.05635837f, -0.10532225f, -0.06717572f, 0.10322252f, -0.10935001f, -0.06757236f, 0.08913773f, -0.19572322f, -0.02367114f, 0.14082967f, 0.10530956f, -0.04679891f, -0.04659024f, 0.02624616f, 0.11899646f, -0.00860038f, -0.05331136f, -0.02786223f, -0.05660058f, 0.02781718f, 0.07636590f, 0.04247964f, -0.10557760f, -0.07080492f, 0.06807962f, -0.06387927f, 0.00466065f, -0.05492900f, 0.09781937f, -0.06131116f, -0.05361234f, 0.09217752f, 0.03386861f, 0.07569076f, -0.11098060f, 0.04028831f, -0.03757714f, 0.03413719f, 0.02543871f, 0.06465129f, -0.03921033f, -0.04727808f, -0.02101774f, -0.08090971f, 0.05123734f, -0.00851069f, -0.00265716f, 0.09755615f, -0.02229080f, -0.03275137f, 0.03093565f, -0.13603926f, 0.01994065f, 0.03416958f, 0.01279900f, 0.03020879f, 0.08084622f, -0.04547710f, -0.09611570f, -0.08644505f, 0.14094628f, 0.00425014f, -0.03605848f, -0.00801742f, -0.03826035f, 0.10253184f, 0.03211327f, 0.12213515f, 0.09427862f, 0.09910946f, -0.00493163f, -0.05690968f, 0.08171559f, -0.16025741f, 0.04655017f, -0.00750868f, 0.02879275f, -0.09948850f, 0.07858402f, 0.06089985f, 0.04489760f, 0.06544068f, 0.03198165f, 0.06114333f, -0.12729661f, 0.12986253f, 0.01814821f, -0.03715749f, -0.01528132f, 0.08687498f, -0.09546280f, 0.03261387f, -0.05334959f, -0.09803537f, -0.11023556f, -0.02481898f, 0.10496631f, -0.01898956f, -0.08077578f, 0.02441106f, 0.07319329f, -0.06513789f, -0.09349672f, 0.10710534f, -0.17646757f, -0.10724560f, -0.00912285f, 0.06752479f, -0.07363187f, -0.02565536f, -0.05902551f, -0.12272987f, -0.06046383f, 0.02282652f, 0.07484218f, -0.04389219f, 0.01762039f, 0.13427879f, 0.15662859f, -0.01537095f, -0.10383014f, 0.02972107f, 0.00736267f, -0.08051365f, -0.11259630f, -0.00853593f, 0.07192724f, -0.16530579f, -0.03893064f, -0.01482523f, -0.03914241f, -0.10035950f, 0.05025073f, 0.11504512f, -0.05290190f, -0.08912144f, -0.04864718f, 0.06812631f, -0.10841534f, -0.03971278f, -0.07286105f, -0.02603592f, -0.00131097f, -0.13904832f, 0.02364095f, 0.13558426f, -0.02808854f, 0.02446942f, -0.07030529f, -0.01927390f, 0.12164673f, -0.01953718f, -0.06601531f, 0.17452000f, 0.06296048f, -0.00310797f, 0.03598095f, -0.00162149f, 0.05899598f, -0.04018863f, 0.06618763f, 0.10692737f, -0.10325325f, -0.15327075f, -0.03912523f, -0.02966443f, 0.03522268f, 0.10115649f, -0.11275119f, 0.11337493f, 0.03089295f, -0.06633589f, -0.04704560f, 0.06312454f, -0.17181812f, 0.04709506f, -0.01625258f, -0.06479489f, 0.06597256f, 0.04499326f, 0.05667186f, 0.04861145f, -0.00809251f, -0.08224998f, 0.03829982f, -0.10056078f, 0.05352673f, -0.02828595f, -0.09191332f, -0.12958339f, 0.10000157f, -0.06926632f, -0.23987302f, 0.00506805f, 0.06779455f, 0.11734758f, 0.02327370f, 0.10606325f, -0.18347514f, 0.10334505f, -0.04830166f, -0.13627306f, 0.06365875f, -0.08296660f, -0.02225506f, -0.06551478f, 0.12883557f, 0.00494774f, 0.02959947f, 0.08027338f, -0.17096071f, -0.01944081f, 0.05569553f, -0.03694140f, -0.01098984f, 0.06551608f, -0.06408803f, 0.01081670f, 0.06084876f, -0.23047410f, -0.04285121f, 0.01770391f, 0.07461734f, 0.10608858f, -0.02917241f, -0.09499029f, -0.07628092f, 0.12198040f, -0.15347588f, 0.02748976f, 0.07478528f, 0.02851031f, -0.01293585f, -0.04675127f, -0.11701087f, 0.05637889f, -0.09926753f, -0.09850822f, 0.02824035f, 0.07877026f, -0.00385676f, 0.09718183f, 0.09762108f, -0.06869563f, -0.05045087f, -0.06914262f, -0.03664241f, 0.05254674f, 0.04228886f, -0.20036487f, 0.00872652f, -0.00791969f, -0.05646249f, 0.00572946f, -0.00483293f, -0.10175379f, 0.10394356f, 0.04014469f, 0.02991876f, 0.06767018f, 0.06289557f, 0.00522533f, 0.13532251f, 0.10880931f, -0.05628644f, 0.05905048f, -0.02469212f, -0.17615907f, 0.10251603f, -0.04265021f, 0.01447147f, -0.03730908f, -0.03440097f, -0.01871148f, -0.04228552f, -0.05830408f, -0.01224653f, -0.00393505f, -0.03588507f, -0.06848580f, -0.04720115f, -0.00172388f, 0.00178661f, 0.02535924f, -0.00162356f, 0.01162231f, 0.05646357f, -0.03690875f, -0.01796908f, -0.04088228f, 0.02700523f, -0.03377211f, 0.01689075f, 0.05181796f, 0.02370380f, -0.00711668f, -0.08563981f, -0.06935169f, 0.02764417f, -0.03155463f, 0.03462274f, -0.05434693f, -0.09079394f, -0.02603348f, 0.02293740f, -0.03509773f, -0.03341926f, 0.04147886f, 0.08767585f, 0.04600739f, -0.02128925f, 0.03707455f, -0.07507991f, 0.05470796f, 0.08633702f, 0.03414081f, 0.00144572f, -0.06278428f, -0.04898855f, 0.08106368f, -0.05086651f, -0.04551629f, -0.06934275f, -0.02709343f, -0.04655111f, -0.02902230f, -0.07199858f, -0.09255301f, -0.02027527f, -0.05942833f, -0.05095915f, -0.02928697f, -0.08826093f, -0.09273943f, -0.07792502f, -0.08057331f, -0.19086944f, 0.00459429f, -0.02888070f, -0.00130407f, 0.06092792f, 0.06378113f, 0.00801834f, -0.00178844f, -0.09275854f, -0.07124258f, -0.02068265f, 0.00470522f, -0.03657749f, -0.06790755f, -0.04793119f, -0.07048219f, 0.00516480f, 0.02441034f, 0.02631811f, 0.03714249f, -0.00920853f, -0.02659239f, -0.06498948f, -0.07951719f, -0.06013624f, 0.00951960f, 0.00677393f, -0.03293217f, 0.03744310f, 0.02518018f, 0.00933343f, -0.00706012f, 0.00601215f, -0.05029354f, -0.03178499f, -0.05076171f, 0.05623835f, 0.07726243f, -0.03435282f, 0.03448978f, 0.07090516f, -0.02389440f, 0.07759829f, -0.03722230f, 0.00237980f, 0.01598079f, 0.04349674f, 0.02195279f, -0.06153520f, 0.11613461f, 0.00155719f, -0.03271501f, 0.00090034f, 0.03500896f, -0.02243819f, 0.01666478f, -0.03292399f, 0.09346405f, -0.01023012f, -0.04113843f, 0.07446803f, 0.04754635f, 0.10486539f, -0.01482609f, -0.02545185f, 0.05774611f, -0.02286179f, -0.04002344f, -0.00473994f, -0.06561866f, 0.11744628f, 0.04347175f, 0.07980165f, 0.02596409f, 0.05975762f, 0.09682686f, 0.09349918f, 0.07500486f, 0.04953220f, -0.02557509f, 0.04712588f, -0.02998402f, -0.07166236f, 0.00378520f, -0.00547731f, -0.03947269f, 0.03132458f, 0.08055189f, 0.02555020f, 0.01423607f, 0.02249883f, 0.01856463f, -0.01655461f, -0.01611229f, 0.05083143f, 0.18137483f, 0.00022481f, 0.01581407f, 0.04187124f, -0.08882009f, 0.07523018f, 0.05021847f, 0.02567958f, 0.05953696f, -0.03365770f, 0.01977709f, 0.05921845f, 0.00353368f, -0.00059629f, 0.00688236f, 0.07946301f, -0.05712328f, -0.02810467f, 0.12306207f, 0.01577223f, 0.04446284f, 0.03201041f, -0.04771914f, -0.01633846f, -0.11886699f, 0.10744660f, -0.01417131f, 0.11431716f, 0.03533404f, 0.01483940f, -0.07866695f, 0.03776578f, -0.00782997f, -0.06833888f, -0.03014369f, -0.03777161f, -0.04994005f, -0.05008797f, 0.07788809f, -0.04078063f, 0.00106481f, 0.01206771f, -0.03855255f, -0.01187860f, 0.08448905f, 0.07098158f, 0.04258070f, 0.13024133f, -0.00337245f, 0.07859514f, 0.05206389f, 0.02386699f, -0.07635173f, 0.00551834f, -0.04566530f, 0.05023274f, -0.06955058f, -0.24131507f, -0.11560716f, 0.07846354f, 0.10472717f, 0.12529719f, 0.01825618f, -0.01856594f, 0.04211342f, -0.14390284f, 0.06195459f, 0.00968876f, 0.13566622f, 0.06857412f, 0.04144521f, 0.05342625f, -0.05294887f, -0.01882198f, -0.03844065f, -0.02122289f, -0.06672809f, -0.02461086f, -0.11940882f, 0.01176560f, 0.09810160f, -0.03714326f, 0.05012628f, -0.03044556f, 0.07672136f, -0.14580868f, -0.07887491f, -0.12688671f, -0.14526872f, -0.01855590f, -0.07041200f, 0.06167233f, -0.09975705f, 0.03916471f, -0.12809849f, -0.05921565f, -0.10941613f, -0.04484568f, -0.02100893f, 0.05927007f, -0.07246846f, 0.10343608f, -0.03485987f, 0.03524930f, -0.03343137f, -0.10681239f, -0.16383994f, -0.07845815f, -0.03741993f, -0.02109159f, -0.12881409f, 0.06976211f, -0.04632498f, 0.03980695f, -0.06977352f, 0.01290273f, 0.07791725f, 0.10920148f, 0.06700648f, -0.13824318f, -0.00603498f, -0.11920580f, -0.04038198f, -0.00268151f, -0.04929633f, -0.08204488f, -0.00848931f, -0.04330477f, -0.08037400f, -0.02043515f, -0.03014959f, -0.01780928f, 0.02121387f, 0.08658317f, -0.15963276f, 0.00902671f, -0.04976676f, -0.03422473f, 0.05586820f, -0.10654334f, 0.08015443f, -0.13883877f, 0.11978456f, 0.00732394f, -0.05029269f, -0.05969334f, 0.03796840f, 0.11004976f, -0.09863741f, -0.06091218f, 0.10173170f, -0.01644575f, -0.06470779f, -0.06000976f, 0.00599395f, -0.03888446f, -0.07035832f, -0.09979998f, 0.06947412f, 0.03263689f, 0.10287445f, -0.00739604f, 0.04832773f, -0.05625369f, 0.05689563f, 0.09609771f, 0.07082521f, -0.09763452f, 0.13185856f, -0.16721946f, -0.05968116f, -0.01075006f, -0.12186120f, -0.07657478f, -0.08420101f, 0.04509396f, 0.00289508f, 0.06958506f, 0.01263174f, 0.09178778f, 0.04095112f, 0.08852797f, 0.12260623f, -0.10116418f, -0.12200016f, 0.03541647f, 0.15328513f, -0.15135893f, -0.01503979f, -0.03886615f, 0.13726592f, 0.06272003f, 0.08628350f, 0.03971820f, -0.10236098f, 0.10708991f, -0.03557175f, -0.04889243f, 0.01275102f, -0.12564239f, -0.08839698f, 0.04738907f, -0.01753087f, -0.02099122f, -0.04395843f, 0.03158680f, -0.12035763f, 0.09603619f, -0.08355925f, 0.03630996f, -0.12444281f, -0.08168548f, -0.01007385f, 0.10593962f, 0.09821387f, 0.06735776f, 0.10631288f, -0.07651343f, 0.06624514f, 0.07930055f, -0.12179196f, -0.14135595f, 0.08315416f, -0.01254984f, -0.03032188f, -0.03547764f, 0.00202026f, 0.02745082f, -0.05713064f, -0.06672577f, 0.17780320f, -0.04273724f, 0.08521404f, -0.06985986f, 0.05457158f, -0.02618179f, -0.07903264f, -0.05169234f, 0.08394317f, -0.15079245f, 0.07347941f, 0.03283482f, -0.01461784f, 0.00002300f, 0.00015849f, -0.02882141f, 0.07124140f, -0.02328264f, 0.15086296f, -0.03585538f, 0.20766041f, -0.00941301f, 0.02229607f, 0.04351025f, 0.06407128f, -0.04864447f, 0.13369691f, 0.03961935f, 0.00552433f, 0.09164467f, -0.06981808f, -0.05050467f, 0.00820590f, 0.08586930f, 0.01132528f, 0.04732889f, -0.05876406f, 0.04396690f, -0.01269395f, 0.05870987f, 0.10908460f, 0.06573938f, -0.09171169f, -0.06800199f, -0.05633041f, -0.05731357f, 0.11250422f, -0.04659064f, 0.02503650f, 0.04501097f, 0.03325119f, -0.06721075f, 0.03217483f, -0.03679939f, -0.01098571f, 0.07761037f, -0.03648850f, 0.14498231f, 0.04824524f, 0.14264250f, 0.03759363f, 0.11755360f, 0.07745827f, -0.05593035f, 0.06162459f, -0.12271746f, 0.01130413f, 0.07369777f, -0.00841298f, -0.00321727f, 0.04462783f, 0.07899943f, 0.01150948f, 0.04366294f, -0.06223102f, 0.13088514f, -0.00748793f, 0.04336993f, 0.06201122f, -0.08943535f, -0.00753020f, 0.00581332f, -0.01230874f, 0.10613365f, -0.06000115f, 0.02101349f, 0.02706208f, 0.08476868f, 0.06326754f, -0.07154775f, 0.00963458f, 0.02579429f, 0.04348490f, 0.03564222f, -0.10829391f, 0.13682924f, -0.06091432f, 0.02330384f, 0.09363320f, 0.07437097f, 0.03009897f, -0.09353577f, -0.02566381f, 0.08367151f, -0.02605138f, -0.01540487f, -0.09564446f, -0.11010456f, -0.07139514f, 0.02299888f, 0.09435895f, 0.01160972f, 0.06547242f, 0.09442263f, 0.00123852f, 0.12344470f, 0.08002364f, 0.06884815f, -0.05523136f, 0.09091573f, -0.01860564f, 0.03888917f, 0.05485563f, 0.02096962f, 0.01652367f, -0.06302838f, 0.08381674f, 0.10290289f, -0.18526947f, -0.06629402f, -0.09969383f, -0.02716421f, -0.14715788f, -0.01280969f, 0.01041252f, -0.01803931f, 0.11360778f, -0.03073785f, -0.01293124f, 0.06791823f, -0.19197629f, -0.05165369f, -0.04518743f, 0.01332736f, -0.11441185f, -0.02352607f, 0.16350876f, -0.04912371f, -0.05562080f, -0.07303350f, 0.01997417f, 0.02263051f, -0.08800625f, 0.00736064f, 0.07103717f, -0.20816542f, -0.05456427f, -0.08638035f, -0.02928715f, 0.05076025f, -0.03487680f, -0.11340915f, -0.00036444f, -0.08068001f, -0.02492741f, 0.10059011f, 0.11531519f, 0.13514596f, -0.03951464f, 0.03848829f, -0.11640028f, 0.04883045f, -0.06454730f, 0.02057511f, -0.06094551f, 0.05414405f, 0.06807926f, 0.01952369f, -0.07620402f, 0.18409041f, -0.09879924f, 0.03855998f, -0.00916338f, 0.04404963f, 0.02706605f, -0.04379953f, 0.03811482f, -0.02191419f, -0.08710054f, 0.03363832f, -0.08958542f, -0.09297884f, -0.01645422f, 0.03998102f, -0.00707671f, -0.02117840f, -0.03032827f, -0.05458260f, -0.04254894f, -0.10250400f, -0.10861222f, 0.05599635f, -0.04480949f, -0.05432108f, -0.08378369f, -0.03427137f, -0.06459713f, -0.05666455f, 0.05376301f, 0.01200803f, -0.00262212f, 0.00837267f, -0.02464543f, 0.03576183f, -0.01953838f, -0.02619702f, 0.06506640f, 0.00662727f, 0.01289627f, -0.01093647f, -0.03531353f, -0.02212180f, -0.04042378f, -0.04321843f, -0.08552700f, -0.05436543f, -0.05398880f, 0.00785923f, 0.06887236f, 0.06279180f, -0.03955620f, 0.03758577f, -0.03637137f, -0.00607902f, -0.00168872f, -0.06160326f, -0.08459110f, -0.02587554f, 0.00777202f, 0.00287230f, 0.05425663f, -0.03212078f, -0.02342472f, -0.03184342f, -0.05232533f, -0.03430752f, -0.05219169f, -0.10840663f, -0.10036550f, 0.03770797f, -0.01775853f, -0.10963096f, 0.08010209f, 0.05033068f, -0.00655775f, 0.00158823f, 0.05224010f, -0.06244735f, 0.03043964f, -0.04102196f, -0.04510477f, 0.02858642f, -0.03486913f, 0.01269276f, 0.01958064f, -0.00626660f, -0.04471073f, -0.04087721f, -0.01532508f, 0.01298177f, -0.07519586f, -0.04455998f, -0.04327412f, -0.01645885f, -0.00284812f, -0.00261762f, -0.02078573f, -0.03012939f, -0.06794481f, 0.03987296f, -0.03375392f, -0.01410626f, 0.02249348f, 0.07660040f, -0.06880648f, -0.09539708f, -0.12078381f, -0.17229216f, 0.01632605f, 0.13430417f, -0.06099667f, -0.00166867f, -0.05732450f, -0.10134199f, 0.03372767f, -0.02733099f, -0.06723116f, 0.06676269f, 0.00199948f, -0.01983899f, -0.03000278f, 0.06027855f, 0.01370010f, 0.07650672f, 0.08936612f, 0.05758397f, 0.04864893f, -0.18424045f, -0.19942759f, 0.15159239f, 0.13384399f, 0.12315679f, 0.04147890f, -0.06848431f, -0.04149273f, -0.01689029f, 0.09061597f, -0.07932308f, 0.04341777f, 0.01823342f, 0.10257554f, 0.00563595f, -0.05796976f, 0.01967539f, -0.00134547f, 0.11005500f, -0.05148523f, 0.03233546f, -0.03354723f, -0.13023047f, -0.01163807f, 0.15843044f, -0.00444357f, -0.03931631f, 0.02906915f, -0.03080981f, -0.01520265f, -0.10833824f, -0.06555483f, 0.08069521f, 0.09438276f, -0.09115951f, -0.00754780f, -0.03019562f, 0.02683690f, -0.08360808f, -0.08273896f, -0.15037176f, -0.05085296f, -0.02847702f, -0.05883983f, 0.21482794f, 0.09352229f, -0.02632848f, 0.08184982f, -0.12018201f, -0.22216909f, 0.04631390f, -0.04897314f, -0.03530925f, 0.14287068f, 0.00103887f, -0.10840913f, 0.04969660f, -0.04143644f, -0.19855599f, 0.10560179f, 0.10358477f, 0.08738297f, -0.04677434f, -0.10122970f, -0.20391372f, 0.05451974f, 0.01949859f, -0.12916042f, 0.07209688f, -0.02998604f, -0.08566074f, 0.08933217f, -0.06204174f, 0.03286294f, -0.07557392f, -0.08190721f, -0.01839433f, 0.26465195f, -0.04709771f, -0.06804457f, -0.04122940f, -0.02037582f, -0.06922841f, 0.07853942f, -0.09197021f, 0.02886074f, 0.03268760f, -0.05482908f, 0.03306937f, 0.07452318f, -0.01884377f, -0.07221187f, 0.03185917f, -0.00073660f, 0.07398131f, -0.05788350f, -0.14326127f, -0.22521278f, 0.16542538f, 0.09665105f, 0.01774030f, -0.01354031f, -0.01760201f, -0.11583880f, 0.09823325f, 0.03653284f, -0.11477425f, 0.05539577f, 0.03431614f, -0.05366968f, 0.14015105f, 0.05527060f, 0.01103139f, 0.08185828f, -0.07928568f, -0.13807452f, 0.02847483f, -0.03818952f, -0.04895817f, 0.09181573f, 0.01683557f, -0.11861347f, 0.02608473f, 0.05785039f, -0.07990482f, -0.08284009f, -0.09303661f, -0.04857730f, 0.01162186f, 0.09034961f, -0.02263180f, -0.01766694f, -0.05467892f, -0.06911236f, 0.04101905f, -0.00592092f, -0.13196644f, 0.13892996f, 0.01020302f, 0.03947437f, 0.10860007f, -0.04564790f, -0.03072849f, -0.04387141f, -0.08154551f, -0.20165586f, -0.01750782f, -0.04250055f, -0.12824848f, 0.07011583f, 0.09190770f, -0.10552301f, 0.05466977f, -0.09662288f, -0.09313323f, 0.07663151f, -0.00591147f, 0.00872281f, -0.03380811f, -0.02635729f, -0.13806753f, 0.03383546f, -0.04536073f, -0.00954071f, 0.05963526f, 0.03667690f, -0.05319059f, 0.01636254f, -0.02748115f, 0.09977191f, 0.05357783f, -0.02493785f, 0.01484986f, 0.02056257f, 0.00747998f, -0.11295893f, -0.02154719f, -0.14518739f, -0.00620811f, -0.00195676f, 0.10448591f, 0.08570544f, 0.03676898f, 0.13457005f, 0.16176541f, -0.14121997f, -0.06471211f, 0.03814557f, 0.03477440f, -0.05410597f, 0.05318058f, 0.02095382f, -0.02470436f, -0.00419690f, 0.07660519f, 0.02228152f, 0.16134462f, -0.12486323f, -0.01716898f, 0.12016263f, -0.06771626f, 0.07649056f, 0.00982361f, 0.05920100f, -0.01897664f, 0.05584251f, -0.13152562f, -0.08898727f, -0.06156534f, -0.17099847f, -0.01619591f, -0.00260291f, 0.04512671f, -0.00227167f, 0.09530467f, -0.07151156f, 0.03627016f, 0.17203124f, -0.12145285f, -0.08737595f, 0.13852185f, -0.09048192f, -0.01678323f, 0.05061221f, -0.11999245f, -0.01379111f, -0.00714702f, -0.01199376f, -0.03881762f, -0.00391989f, -0.09481243f, 0.01800862f, 0.07641940f, -0.19523717f, -0.13010913f, -0.10766656f, 0.01351438f, 0.03396127f, -0.05105837f, -0.04634182f, 0.06157499f, 0.00979792f, 0.00338162f, 0.09194564f, 0.19552743f, -0.02614788f, -0.06248145f, -0.00805246f, -0.07509752f, -0.02984448f, 0.05936621f, 0.03510953f, -0.15831806f, 0.05206594f, -0.10039726f, 0.04008971f, 0.18031991f, -0.02182295f, 0.02124693f, 0.02669839f, -0.16302985f, -0.11095596f, 0.06172856f, 0.00915659f, 0.03276036f, -0.02905485f, 0.01652679f, 0.00379963f, 0.01754386f, 0.12270223f, 0.16012231f, -0.05128669f, 0.09163815f, -0.06488305f, 0.04438953f, -0.02821898f, -0.02216901f, 0.05999130f, 0.02356617f, 0.03871022f, 0.00425974f, 0.03241228f, 0.02907545f, -0.02969058f, 0.11856199f, 0.05638101f, 0.06005577f, 0.00487031f, 0.00207996f, -0.02599124f, 0.00403343f, -0.03471450f, -0.01263950f, 0.08384147f, 0.03907854f, -0.05873341f, -0.03301577f, 0.04114982f, 0.06526424f, 0.08846423f, 0.04605161f, 0.04004022f, -0.02709719f, 0.09703808f, -0.04320908f, 0.05309398f, -0.04940684f, -0.00950863f, 0.08488838f, -0.04521720f, 0.11052399f, -0.02501843f, 0.00713930f, 0.00944182f, 0.06260136f, 0.06648858f, 0.04767431f, 0.01508019f, 0.02524843f, -0.00188967f, 0.03447055f, -0.01180695f, -0.00125008f, -0.05213517f, 0.09571983f, 0.02634306f, 0.04757702f, 0.09125188f, 0.01872176f, 0.12198297f, 0.00045170f, -0.07397885f, 0.12521297f, 0.05351986f, 0.00442807f, 0.00512827f, -0.00321367f, -0.06440510f, -0.04569287f, 0.00061766f, 0.06397033f, 0.01776072f, -0.04499423f, -0.00869462f, 0.01618152f, 0.03831058f, -0.08104032f, -0.00832994f, -0.05003224f, 0.01731770f, 0.01131340f, 0.01212534f, -0.03984985f, -0.01223585f, 0.06490115f, 0.04138748f, 0.01001966f, 0.06966712f, -0.07086676f, -0.04972444f, 0.13608836f, 0.05924529f, -0.19073427f, -0.09748854f, -0.15266503f, -0.18683006f, 0.11018180f, 0.21122649f, -0.10957040f, 0.18587057f, -0.09900549f, -0.04722371f, -0.07874200f, 0.07479098f, 0.06781686f, 0.00018898f, -0.01822629f, -0.06913374f, -0.08193399f, -0.08370959f, -0.15509741f, 0.18021405f, -0.05580005f, -0.24377239f, -0.16815595f, -0.03509489f, 0.07938134f, 0.00834958f, 0.05737934f, -0.03048847f, 0.23459120f, 0.17074822f, -0.18262486f, -0.04074348f, -0.10743120f, -0.17424023f, 0.19416386f, -0.11566690f, -0.12446000f, 0.12405115f, 0.12904647f, -0.25515872f, -0.00632716f, -0.01490094f, -0.04324986f, 0.14527513f, 0.13894634f, 0.03149550f, 0.04805854f, 0.21774161f, -0.11835319f, 0.12391661f, -0.16106488f, -0.01178451f, 0.07040539f, -0.03348339f, 0.13726860f, 0.04032388f, 0.02258223f, 0.03886208f, 0.16071931f, -0.07964981f, -0.14507174f, 0.11612163f, -0.04125101f, -0.05554513f, 0.17697692f, 0.12236539f, -0.11084539f, 0.02264827f, 0.10696415f, -0.10941652f, -0.01421620f, -0.11467138f, 0.04872595f, 0.14222920f, 0.00108679f, -0.22783935f, 0.09610374f, 0.08778305f, -0.09236860f, 0.03334142f, 0.16281708f, -0.02853151f, 0.18012266f, -0.13139214f, -0.28081390f, -0.17271288f, 0.15278603f, 0.02763601f, -0.00669978f, 0.15337759f, -0.14536916f, -0.21903417f, 0.16807532f, 0.01456714f, -0.01305437f, -0.03768170f, 0.01232998f, -0.06598311f, -0.06446312f, -0.02190172f, 0.00492303f, -0.01283076f, -0.08471663f, -0.01680229f, -0.00976442f, 0.07141112f, 0.00625642f, 0.02880960f, 0.12928486f, -0.01888192f, -0.07565879f, -0.01296087f, -0.01267392f, -0.01500253f, 0.00012923f, 0.02291713f, 0.04409821f, -0.01422506f, -0.08044203f, -0.09433123f, 0.04787523f, 0.04054198f, 0.07539638f, -0.04387252f, -0.03040884f, 0.04143063f, 0.04145698f, 0.02900163f, 0.00491764f, 0.05889655f, 0.04411089f, -0.02721525f, 0.04729820f, 0.03153532f, -0.01791540f, -0.02849732f, 0.04436002f, -0.09410211f, 0.03460016f, -0.09153524f, -0.10044669f, 0.01313161f, 0.03265296f, -0.02649124f, -0.02024742f, -0.00148879f, 0.02235597f, -0.01259384f, -0.00778219f, -0.00950587f, -0.00098158f, -0.02478177f, -0.00007211f, -0.00983465f, -0.09585346f, -0.09288687f, -0.09511634f, -0.09177613f, -0.11328268f, -0.02818178f, -0.02522972f, -0.07620629f, 0.02913289f, -0.02645323f, 0.01271360f, -0.00710963f, -0.12435669f, -0.09154897f, -0.03855571f, 0.01817684f, 0.00842194f, -0.04354180f, -0.10358471f, -0.03105284f, -0.00835885f, -0.02911433f, -0.05343743f, 0.05971378f, 0.07513074f, 0.06333511f, -0.08730055f, -0.07479060f, -0.11288055f, -0.05270687f, -0.05629002f, -0.06420296f, -0.04105498f, -0.09563447f, -0.01911024f, 0.06702312f, -0.06543047f, 0.02168217f, -0.04443129f, -0.01870864f, 0.06455970f, 0.01565179f, 0.15075834f, -0.03278162f, -0.05451430f, 0.07119247f, -0.00049233f, -0.02079895f, -0.01986859f, -0.03405498f, 0.04796681f, 0.05266925f, 0.01694870f, 0.02804225f, -0.01403552f, -0.00847527f, 0.04115044f, -0.00981591f, 0.04533150f, 0.06851463f, -0.01010372f, 0.12644270f, 0.02103024f, 0.05537722f, 0.04378115f, -0.02021242f, 0.02960009f, 0.01031486f, -0.06225412f, -0.11708938f, 0.00378112f, 0.03434313f, -0.07823297f, 0.02716839f, 0.04344131f, -0.03958987f, 0.02587403f, -0.00454541f, -0.04510368f, -0.00562282f, -0.03116340f, 0.05648774f, 0.08471660f, 0.04550517f, 0.04539078f, 0.03404859f, 0.07391113f, 0.02733682f, -0.00212356f, 0.08704013f, -0.00953576f, 0.00286424f, -0.00633703f, 0.13663501f, -0.01695911f, 0.03699099f, 0.00571884f, 0.07649709f, 0.01328434f, 0.05950491f, 0.03309614f, 0.02034244f, 0.11243024f, 0.00263812f, 0.00686833f, 0.11222011f, -0.10294090f, 0.00041230f, -0.02198119f, 0.00558759f, -0.00218973f, 0.08099534f, 0.10699256f, -0.05333314f, -0.05697714f, 0.04271891f, -0.01000896f, 0.08347487f, 0.10467500f, -0.02610910f, -0.02305982f, -0.04226306f, 0.01364707f, 0.05940767f, 0.02489304f, 0.08771108f, -0.04020392f, 0.09653550f, 0.05480199f, 0.07598942f, -0.05968478f, -0.05436910f, -0.05875972f, -0.06462228f, 0.01870179f, 0.03712048f, 0.04321066f, -0.01792150f, -0.03772236f, 0.02733185f, 0.00987432f, -0.10293300f, 0.05763441f, 0.03511430f, 0.11131107f, -0.02234691f, 0.04516337f, -0.05400487f, 0.07117052f, 0.07924926f, 0.00257156f, 0.02574299f, -0.16116996f, -0.02659595f, -0.07250812f, -0.18425283f, -0.00455525f, 0.18104939f, -0.05836953f, 0.11360623f, -0.04808916f, 0.00020608f, 0.13602544f, 0.16998693f, -0.09470525f, -0.06878359f, -0.01905588f, 0.05377348f, 0.02158622f, 0.23405130f, -0.16263717f, -0.07960026f, 0.10276411f, -0.00718961f, -0.03336754f, 0.07957231f, -0.07717500f, -0.13517299f, 0.13255358f, -0.10654007f, -0.04419549f, 0.04189804f, -0.03711145f, 0.06709383f, 0.13995884f, -0.10371966f, -0.00672397f, 0.11697268f, -0.15320890f, -0.04620063f, 0.04163742f, -0.17798461f, -0.07991271f, 0.17666933f, -0.04032127f, 0.07232867f, 0.03497737f, 0.04787752f, 0.09118223f, 0.08488853f, -0.03246132f, 0.10279414f, 0.10779700f, -0.08289634f, 0.08512314f, -0.06998323f, -0.12802219f, 0.15750939f, -0.05524549f, -0.11733597f, -0.09283382f, -0.06594628f, -0.04107432f, 0.10491286f, -0.05849875f, -0.00988113f, -0.04709033f, 0.01987266f, 0.00789990f, -0.03392573f, -0.07147453f, 0.04916037f, -0.03521087f, 0.08241741f, -0.16944830f, 0.06428138f, 0.07693055f, -0.06349038f, 0.02280910f, 0.08166066f, 0.03411613f, -0.03433568f, -0.02989221f, 0.05436544f, 0.04345321f, -0.02276416f, 0.06124165f, -0.04139790f, -0.03004305f, 0.02935525f, -0.07247692f, -0.05843055f, -0.06502734f, 0.01671571f, 0.10791350f, -0.05251285f, -0.02292610f, -0.04206277f, 0.00136000f, -0.03110770f, -0.06909797f, 0.04597490f, 0.01105186f, -0.06192397f, 0.01750057f, -0.04199554f, -0.01003066f, 0.01180255f, -0.04246140f, -0.02035622f, -0.03588130f, -0.00386846f, -0.00341652f, -0.07346769f, -0.12801626f, -0.01969666f, 0.04078258f, 0.09114254f, -0.12038416f, -0.00538244f, 0.06445570f, -0.05316478f, 0.04462172f, -0.01097996f, -0.06123664f, -0.05162712f, -0.10737514f, 0.03145668f, -0.01427522f, 0.05221727f, -0.04028334f, 0.04462282f, -0.03229689f, -0.10259859f, 0.03863025f, 0.05800201f, -0.07636068f, -0.09701374f, -0.01096531f, -0.07375447f, -0.03175018f, -0.02581374f, 0.03632025f, 0.10070521f, -0.03917429f, 0.10279418f, 0.03709587f, 0.01841826f, -0.12133080f, -0.10392687f, 0.03660824f, 0.05945547f, 0.02849142f, -0.00421033f, -0.02790021f, -0.12425108f, -0.09073258f, 0.04475075f, -0.04466610f, 0.03599095f, -0.05432645f, 0.00524920f, 0.06509389f, -0.13833056f, -0.08990157f, -0.02290855f, -0.04757387f, 0.09276393f, -0.01517175f, 0.08160821f, 0.03986529f, 0.06131977f, -0.17872205f, -0.02999810f, -0.01597642f, -0.07237509f, 0.00654976f, -0.01247516f, 0.03312165f, 0.02711488f, -0.01298979f, -0.00987695f, 0.00720056f, 0.00122729f, -0.05506177f, -0.00132040f, -0.03296293f, 0.00106767f, 0.04137723f, -0.05871516f, -0.05775232f, -0.02657724f, -0.05623363f, -0.07174077f, -0.05288670f, 0.02344914f, -0.03152606f, 0.02873381f, 0.02584129f, 0.03015698f, -0.00729390f, -0.05289096f, -0.04843984f, 0.00284912f, -0.02250519f, -0.00119136f, 0.04410622f, -0.03104237f, -0.08612731f, -0.01055926f, 0.02613084f, 0.01141191f, -0.01318068f, -0.01612748f, -0.06226923f, -0.03329515f, 0.04214991f, 0.03901374f, 0.03762959f, 0.00417997f, -0.03970299f, -0.03758904f, -0.05770674f, -0.10361865f, -0.06881582f, -0.05509881f, -0.06451719f, 0.02350694f, -0.01893043f, -0.02085953f, -0.01719965f, -0.04075525f, -0.05412550f, 0.02704989f, -0.03088407f, -0.12922391f, 0.00629134f, -0.06184111f, -0.11981676f, 0.02939743f, -0.01195357f, 0.02677170f, -0.01783082f, -0.03307737f, -0.08992240f, 0.09256514f, -0.02357293f, -0.05256167f, -0.00518875f, 0.02760414f, 0.03008544f, -0.01808938f, 0.01804407f, -0.07948922f, 0.02007923f, 0.03477866f, -0.04267276f, -0.08212105f, -0.08686315f, -0.08719654f, 0.04342605f, 0.04636984f, -0.03595571f, -0.04635911f, -0.03622729f, -0.05409424f, -0.00689625f, -0.06817941f, 0.00672923f, 0.00655589f, -0.00088390f, 0.03437492f, -0.15102924f, 0.03898952f, 0.03665603f, -0.10102159f, 0.09789168f, 0.07483117f, -0.05672222f, 0.06057797f, 0.09372929f, -0.09690452f, 0.06665526f, -0.12400892f, -0.05547310f, -0.06586352f, 0.04115358f, -0.14313479f, 0.08823047f, -0.08012307f, -0.01018244f, 0.09812247f, -0.05369612f, -0.02197347f, 0.18800119f, 0.06646518f, -0.11473543f, -0.05262207f, 0.10427389f, 0.01685958f, 0.07946377f, -0.04333627f, -0.07200511f, -0.01100722f, -0.01029088f, 0.04012173f, -0.03629813f, -0.03897753f, -0.06270065f, -0.03181361f, 0.14451873f, -0.02202725f, 0.01928021f, -0.08442886f, 0.01289540f, 0.08537290f, 0.04514374f, 0.03974212f, -0.06563434f, -0.08754407f, -0.08214951f, 0.05635697f, 0.06192430f, -0.03197872f, 0.03642286f, -0.00505861f, -0.08139308f, -0.05389465f, 0.01059480f, -0.01957013f, 0.10084162f, 0.09120625f, 0.02357489f, -0.09696425f, 0.07562757f, 0.03961506f, -0.02420106f, 0.03409908f, 0.02717356f, -0.06447130f, 0.04441143f, -0.02294024f, 0.04573502f, 0.01624273f, 0.10012976f, 0.13317640f, -0.08056933f, 0.01506547f, -0.03977044f, -0.00029491f, 0.01021040f, 0.01091347f, -0.06771942f, -0.08324923f, -0.04710523f, 0.00488536f, -0.00844070f, 0.12155274f, 0.03472864f, 0.02064998f, -0.04604523f, -0.06585190f, -0.00908964f, -0.07932350f, 0.13858713f, -0.06585883f, 0.01389280f, 0.08914495f, 0.06182678f, 0.04647907f, 0.03484576f, -0.06802785f, 0.21873279f, 0.09694654f, -0.02289573f, 0.00200638f, -0.00567987f, -0.04858404f, 0.03057730f, -0.05294003f, 0.04805183f, -0.01642369f, -0.04189093f, 0.02657350f, -0.02698754f, 0.03434283f, 0.00730897f, 0.07926324f, -0.03017009f, 0.09225469f, 0.10890689f, -0.00815048f, -0.07364978f, 0.00878820f, 0.05494811f, 0.07995364f, -0.01740442f, 0.11981882f, -0.03171064f, -0.06695798f, 0.03147132f, -0.00908748f, -0.01154792f, -0.03709067f, -0.09094177f, 0.00685474f, 0.09632845f, -0.03891575f, 0.05103363f, 0.12056118f, 0.07419324f, 0.02861295f, 0.00529343f, -0.04176191f, -0.02199337f, -0.02517234f, 0.04917073f, -0.09257353f, -0.03547285f, 0.15819171f, -0.02810495f, 0.00804559f, -0.09016024f, 0.09556659f, 0.03810428f, 0.04820793f, -0.08879439f, -0.02669325f, 0.17770070f, -0.03270999f, -0.06388760f, -0.06495483f, 0.19087639f, 0.05949765f, 0.05625034f, -0.01667895f, -0.08438516f, 0.01256999f, -0.09266353f, -0.00041435f, -0.08699197f, 0.01699874f, 0.12797914f, 0.01711485f, 0.06595986f, -0.04119737f, 0.02362776f, -0.03913529f, 0.02572827f, 0.07859740f, -0.01116205f, -0.10745443f, 0.14536016f, 0.08188365f, 0.14822954f, 0.06259874f, -0.07253149f, -0.02590174f, -0.13011536f, 0.07199252f, -0.03254623f, -0.08696750f, 0.07394436f, 0.03939021f, -0.04916339f, 0.05295761f, 0.04518034f, -0.01270388f, -0.05756551f, -0.03384081f, -0.03399832f, -0.01383364f, -0.00486028f, -0.01233865f, -0.00228437f, -0.04574795f, -0.03864617f, -0.01304370f, -0.01608977f, -0.09636446f, -0.03807064f, -0.01072812f, -0.02467442f, 0.00199315f, 0.05309307f, 0.05157435f, 0.02237586f, -0.00339983f, -0.06521146f, 0.04494549f, -0.12675643f, -0.12317816f, 0.04447483f, 0.01078531f, 0.00439357f, 0.09797432f, -0.02586647f, -0.09371433f, 0.03565385f, 0.00515084f, 0.01814727f, -0.15030693f, 0.07116573f, -0.18156160f, 0.02109592f, -0.03240737f, -0.09860399f, -0.03041914f, 0.03315964f, -0.01519767f, -0.03030795f, 0.03882853f, -0.06973412f, -0.04755202f, 0.11457798f, -0.00814205f, 0.09322835f, 0.08245971f, 0.01086707f, -0.05177569f, 0.04317367f, -0.09174302f, -0.02048481f, 0.08818800f, -0.08817637f, -0.02400851f, 0.01937936f, -0.13407536f, -0.00696917f, -0.02958173f, -0.05950860f, -0.10828496f, 0.11696113f, -0.08467139f, 0.04971599f, 0.05127094f, -0.14116219f, 0.04964677f, 0.00701291f, -0.06970021f, 0.00387423f, 0.01494051f, -0.08707768f, -0.08637195f, -0.00274633f, -0.03438717f, -0.01060765f, 0.09221032f, -0.06339393f, 0.02619288f, -0.01188419f, -0.05549083f, -0.04046797f, 0.01925572f, -0.05071783f, -0.00187725f, 0.01602588f, 0.04472384f, -0.04885904f, -0.02482440f, -0.01097271f, -0.10682718f, -0.01774404f, -0.03693690f, -0.01807990f, -0.03714604f, 0.01915536f, 0.00759376f, -0.08148699f, 0.02403007f, -0.02623536f, 0.02418505f, 0.00002287f, -0.03426678f, 0.02110189f, 0.03726871f, -0.08042927f, -0.11160848f, -0.07304557f, -0.01107878f, -0.06633860f, -0.00986210f, -0.03239037f, -0.06547171f, -0.01306665f, -0.01857095f, -0.05625455f, -0.05346231f, -0.02564532f, -0.05804302f, 0.00507249f, -0.04022011f, -0.06462477f, 0.03187440f, -0.01874476f, -0.01406094f, -0.01163822f, 0.03110053f, 0.01929504f, 0.05599566f, -0.04225767f, -0.03920481f, -0.02329664f, 0.00230683f, -0.02356516f, 0.02471676f, 0.00155521f, 0.02572226f, -0.06584366f, -0.07680599f, -0.08334451f, 0.05052728f, -0.08308738f, -0.00304227f, 0.01419116f, 0.03912145f, 0.03501101f, 0.04439066f, -0.00156522f, -0.04381375f, 0.00530157f, 0.01210181f, -0.00370208f, 0.00998008f, -0.01678642f, 0.00220063f, -0.01004184f, 0.03933607f, -0.05701780f, 0.08137642f, -0.07454244f, -0.08289776f, -0.04518773f, -0.06725100f, -0.05997207f, -0.00521602f, -0.01612581f, -0.08512288f, -0.03902068f, -0.04368569f, 0.01099219f, -0.04715693f, -0.05737397f, -0.01631726f, -0.07148942f, 0.02583142f, -0.05893924f, 0.02508599f, 0.00843936f, -0.03690765f, 0.05843269f, -0.06301472f, -0.03422467f, -0.12766157f, -0.08878283f, 0.08644772f, 0.05517307f, -0.05417368f, -0.02122016f, -0.11973858f, -0.05422584f, -0.08949688f, -0.13016933f, -0.01836358f, 0.09293174f, 0.00808359f, -0.07404435f, 0.16421634f, 0.04852310f, 0.06690545f, 0.03874858f, -0.05377135f, 0.06635072f, 0.07258920f, 0.07026973f, 0.03186352f, -0.00936113f, 0.06406029f, 0.01182354f, 0.17589970f, 0.07250775f, 0.08310065f, 0.11975189f, 0.07009984f, -0.09284190f, 0.02215713f, -0.03503315f, -0.07303857f, 0.15313691f, -0.03754150f, -0.00313741f, 0.02322210f, -0.17011701f, 0.02784433f, 0.07182787f, 0.06914197f, 0.06244452f, 0.09609585f, -0.03324074f, 0.01504336f, -0.03653097f, 0.01795222f, -0.05141332f, 0.00348836f, 0.02712672f, 0.07096964f, -0.06066740f, 0.05578997f, -0.10411171f, 0.03443682f, -0.01845632f, 0.02568808f, -0.09299086f, -0.09287181f, 0.09236103f, 0.03951573f, -0.11536199f, 0.12644857f, -0.02947836f, -0.06850569f, -0.00734644f, 0.10634754f, -0.11146884f, 0.00661089f, -0.08233826f, -0.07848448f, 0.01368427f, 0.00559487f, 0.05474723f, -0.11425249f, 0.14911705f, 0.04759792f, -0.02199633f, 0.02751118f, 0.00337341f, -0.12290528f, 0.13538690f, -0.06559940f, 0.00162066f, 0.06544346f, 0.03010951f, -0.06300589f, -0.03183913f, -0.12248110f, -0.07073084f, 0.00665202f, -0.16821621f, -0.00760671f, -0.07890177f, 0.02361485f, 0.04228113f, -0.01017667f, -0.03314740f, -0.02877708f, -0.03437933f, 0.00446763f, 0.03891500f, -0.04264532f, 0.00958564f, -0.06638578f, -0.03405065f, -0.05687943f, -0.04489945f, -0.09146877f, 0.00705188f, 0.00884640f, -0.02273433f, -0.04108006f, -0.08732997f, -0.05038982f, -0.03265233f, -0.03801025f, -0.01802428f, 0.07062290f, 0.04175025f, -0.00214108f, -0.03510096f, 0.00827140f, -0.04207786f, 0.06245711f, 0.06210307f, 0.00853546f, 0.01422946f, -0.01138274f, -0.06063777f, -0.02519453f, -0.02828543f, -0.04003191f, -0.04963717f, -0.04696634f, 0.01353274f, -0.01726988f, -0.06045192f, -0.01532932f, 0.01747728f, -0.02532155f, -0.08264519f, -0.04851396f, -0.02645315f, -0.04255070f, -0.03820851f, -0.08285563f, -0.03341807f, 0.03857835f, 0.02573663f, -0.02897000f, -0.01525011f, -0.07301997f, -0.02336025f, 0.02163688f, -0.03924389f, -0.05212778f, 0.02099810f, -0.02166357f, -0.06236518f, 0.02210167f, 0.02088767f, 0.04740936f, -0.08318793f, -0.01788616f, -0.06987134f, 0.02992969f, -0.10084363f, -0.06852181f, 0.00847784f, -0.01794016f, -0.03271629f, -0.03701824f, -0.06228348f, -0.01053381f, 0.05439241f, 0.00393745f, -0.05740262f, -0.07017039f, -0.07988659f, -0.04851462f, -0.05711421f, -0.00136435f, 0.02400433f, 0.05532298f, -0.01450013f, -0.05392900f, -0.01328332f, -0.04889733f, -0.00954012f, 0.02684520f, -0.00662261f, 0.00201764f, 0.00579565f, 0.01373729f, -0.04986380f, 0.02262522f, 0.05084272f, 0.03033687f, 0.03966236f, 0.00658964f, 0.00120186f, -0.00631589f, -0.01290228f, -0.05725049f, -0.07088001f, -0.07352886f, 0.01440857f, 0.02988347f, -0.04764267f, -0.06855953f, -0.05194350f, 0.00672271f, 0.04247102f, 0.03163092f, -0.00630084f, -0.00434152f, 0.03287284f, -0.06821851f, -0.04544636f, 0.01926714f, -0.03665441f, 0.03726418f, -0.01360182f, -0.04376342f, -0.03887559f, -0.06636479f, -0.02407623f, -0.03254970f, -0.01979023f, -0.00339741f, -0.00823322f, -0.01925557f, -0.06723278f, -0.05730200f, 0.01935300f, 0.00742357f, -0.09201913f, 0.03430096f, 0.00842395f, -0.00327693f, -0.03212479f, -0.01887364f, -0.06708868f, 0.00443318f, -0.03066232f, 0.00010767f, -0.01643280f, -0.01979364f, 0.00080905f, -0.04519867f, -0.06061956f, 0.01030062f, 0.07369222f, 0.00894657f, -0.08562295f, 0.06428044f, -0.06355420f, -0.00113096f, 0.01663568f, -0.01206229f, -0.03228428f, -0.01632413f, -0.08252554f, -0.03510015f, -0.04505040f, -0.03145076f, -0.04363964f, 0.03351274f, -0.01761830f, -0.05784480f, 0.01194011f, -0.02077306f, -0.05263700f, -0.00111518f, -0.07742692f, -0.06699869f, -0.04782826f, -0.02591611f, -0.01259880f, -0.04308207f, -0.03366578f, -0.01958598f, -0.03250814f, -0.07131617f, -0.05362823f, -0.01486596f, -0.00892140f, -0.05971416f, 0.01785328f, -0.04848806f, -0.03869720f, 0.02146930f, 0.01871889f, -0.03591130f, 0.01966196f, -0.03492846f, -0.01893897f, 0.01659842f, -0.02017707f, -0.00697688f, 0.02122623f, -0.04536542f, -0.02036276f, -0.06655867f, -0.00396887f, -0.01990050f, -0.02964667f, -0.00342556f, -0.05956711f, 0.00880644f, -0.01112092f, -0.04945394f, 0.03722423f, -0.02990195f, -0.00275317f, 0.04346321f, 0.00912094f, -0.00999124f, 0.02709963f, -0.00585294f, -0.02960563f, -0.01538216f, -0.00759209f, -0.04163750f, -0.01903452f, -0.04353954f, -0.00744367f, 0.02075200f, -0.01670376f, -0.02161827f, 0.01864737f, -0.02728556f, -0.00652767f, -0.01870873f, -0.07094336f, -0.07944131f, -0.05604820f, -0.03558018f, -0.06498934f, 0.02222096f, -0.00538082f, -0.00282782f, 0.01088241f, -0.01781959f, -0.00638188f, -0.04671838f, -0.05767857f, -0.07163483f, -0.01435601f, -0.04165117f, -0.08152196f, -0.02146212f, -0.01895730f, -0.01228592f, -0.04162759f, -0.03684146f, -0.05599844f, 0.01570422f, -0.05301424f, -0.06077180f, -0.01919283f, -0.04696853f, -0.00164389f, 0.02603114f, -0.03648042f, -0.03367829f, -0.01595384f, -0.03607670f, -0.02315846f, -0.09138638f, -0.03983121f, -0.02117811f, -0.00578855f, -0.01039127f, -0.03239331f, -0.00164298f, -0.00750148f, -0.03908830f, -0.02106792f, -0.01087102f, -0.02445680f, -0.03416361f, 0.00127753f, -0.04980038f, -0.03399721f, -0.08746656f, -0.01492330f, -0.00316744f, 0.00101151f, 0.00128543f, -0.05689378f, -0.03924973f, -0.00149521f, -0.01113733f, -0.06402123f, 0.02992776f, -0.02225816f, -0.03446056f, -0.03660202f, -0.00624280f, -0.00917187f, -0.09396882f, -0.08950288f, -0.00384928f, -0.03715975f, 0.04042171f, -0.02077248f, -0.05124946f, 0.01134494f, -0.04028910f, 0.04593294f, 0.06101763f, -0.01176479f, -0.03986549f, 0.04914221f, 0.00664261f, 0.01594117f, -0.00148015f, 0.02934179f, -0.01933296f, -0.05538356f, -0.06809539f, -0.03941195f, 0.02415667f, 0.00766572f, -0.00272302f, 0.01607181f, 0.02859729f, -0.00318102f, 0.03600021f, -0.02131468f, -0.06312606f, -0.04181891f, -0.04528978f, -0.12335424f, 0.01570277f, 0.02863296f, -0.02585631f, -0.03646875f, -0.02734737f, -0.04510679f, -0.02579845f, -0.01964797f, -0.04450195f, -0.07878994f, -0.02609021f, -0.08177508f, 0.01077018f, 0.03349420f, -0.01997696f, 0.04236497f, -0.00230538f, 0.03167093f, 0.00958060f, -0.04757162f, -0.04640444f, 0.00755601f, -0.07278488f, -0.07484943f, 0.03024869f, 0.05680868f, -0.00244356f, -0.03285153f, 0.01202972f, -0.04554906f, -0.09100525f, -0.05339877f, -0.02170977f, -0.04236559f, -0.05700588f, -0.05740310f, 0.03045823f, -0.06231012f, -0.06539118f, 0.02043605f, 0.04932949f, 0.07188167f
};
static const float CONV2_B[64] = {
    -0.80182993f, 0.64378935f, 0.52215099f, -0.01406155f, -0.68950313f, 0.55458707f, 0.49038884f, 0.33748713f, -0.06295368f, 0.30335253f, 0.02087544f, 0.56472224f, 0.65965962f, 0.33517054f, 0.42926902f, 0.36963210f, 0.08155677f, 0.51870507f, 0.63315141f, -0.59178215f, -0.69091260f, 0.69309586f, 0.46420076f, 0.61298501f, 0.22668955f, 0.65872931f, -0.74792022f, 0.11678091f, 0.48719585f, -0.69546413f, -0.00156420f, 0.55195266f, 0.63118827f, 0.07613900f, 0.63244289f, 0.06298970f, 0.30703688f, 0.13102508f, 0.56079173f, -0.68573248f, 0.36541221f, 0.16262554f, -0.66672111f, -0.06425379f, 0.71015304f, 0.26295379f, 0.30052820f, 0.06726952f, -0.83623892f, 0.14926890f, 0.49057359f, -0.74714595f, 0.04010748f, 0.54329038f, 0.66666299f, -0.03879887f, -0.44170278f, 0.49574095f, 0.60567462f, 0.02180681f, 0.71899962f, 0.58406210f, 0.68182677f, 0.58498853f
};

// Conv3: 64 in, 64 out, kernel=3, pool=1
#define CONV3_IN_CH   64
#define CONV3_OUT_CH  64
#define CONV3_KERNEL  3
#define CONV3_POOL    1
static const float CONV3_W[12288] = {
